digraph Tree {
node [shape=box, style="filled, rounded", color="black", fontname="helvetica"] ;
edge [fontname="helvetica"] ;
0 [label="Support Calls <= 0.191\nentropy = 0.988\nsamples = 424254\nvalue = [185253, 239001]\nclass = Baja", fillcolor="#d2e9f9"] ;
1 [label="Total Spend <= -0.473\nentropy = 0.945\nsamples = 265837\nvalue = [169337, 96500]\nclass = Recuperado", fillcolor="#f4c9aa"] ;
0 -> 1 [labeldistance=2.5, labelangle=45, headlabel="True"] ;
2 [label="Payment Delay <= 0.809\nentropy = 0.562\nsamples = 55577\nvalue = [7311, 48266]\nclass = Baja", fillcolor="#57ace9"] ;
1 -> 2 ;
3 [label="Support Calls <= -0.127\nentropy = 0.64\nsamples = 36336\nvalue = [5896, 30440]\nclass = Baja", fillcolor="#5fb0ea"] ;
2 -> 3 ;
4 [label="Age <= -1.202\nentropy = 0.646\nsamples = 28959\nvalue = [4772, 24187]\nclass = Baja", fillcolor="#60b0ea"] ;
3 -> 4 ;
5 [label="Last Interaction <= 0.794\nentropy = 0.615\nsamples = 4240\nvalue = [644, 3596]\nclass = Baja", fillcolor="#5cafea"] ;
4 -> 5 ;
6 [label="Total Spend <= -1.655\nentropy = 0.632\nsamples = 2934\nvalue = [467.0, 2467.0]\nclass = Baja", fillcolor="#5eb0ea"] ;
5 -> 6 ;
7 [label="Total Spend <= -1.786\nentropy = 0.576\nsamples = 774\nvalue = [106, 668]\nclass = Baja", fillcolor="#58ade9"] ;
6 -> 7 ;
8 [label="Total Spend <= -1.828\nentropy = 0.635\nsamples = 555\nvalue = [89, 466]\nclass = Baja", fillcolor="#5fb0ea"] ;
7 -> 8 ;
9 [label="Total Spend <= -2.076\nentropy = 0.593\nsamples = 474\nvalue = [68, 406]\nclass = Baja", fillcolor="#5aade9"] ;
8 -> 9 ;
10 [label="Payment Delay <= -0.309\nentropy = 0.235\nsamples = 26\nvalue = [1, 25]\nclass = Baja", fillcolor="#41a1e6"] ;
9 -> 10 ;
11 [label="entropy = 0.0\nsamples = 16\nvalue = [0, 16]\nclass = Baja", fillcolor="#399de5"] ;
10 -> 11 ;
12 [label="entropy = 0.469\nsamples = 10\nvalue = [1, 9]\nclass = Baja", fillcolor="#4fa8e8"] ;
10 -> 12 ;
13 [label="Last Interaction <= -0.831\nentropy = 0.609\nsamples = 448\nvalue = [67, 381]\nclass = Baja", fillcolor="#5caeea"] ;
9 -> 13 ;
14 [label="entropy = 0.512\nsamples = 149\nvalue = [17, 132]\nclass = Baja", fillcolor="#52aae8"] ;
13 -> 14 ;
15 [label="entropy = 0.651\nsamples = 299\nvalue = [50, 249]\nclass = Baja", fillcolor="#61b1ea"] ;
13 -> 15 ;
16 [label="Payment Delay <= -1.427\nentropy = 0.826\nsamples = 81\nvalue = [21, 60]\nclass = Baja", fillcolor="#7ebfee"] ;
8 -> 16 ;
17 [label="entropy = 0.0\nsamples = 8\nvalue = [0, 8]\nclass = Baja", fillcolor="#399de5"] ;
16 -> 17 ;
18 [label="Age <= -1.438\nentropy = 0.866\nsamples = 73\nvalue = [21, 52]\nclass = Baja", fillcolor="#89c5f0"] ;
16 -> 18 ;
19 [label="entropy = 0.73\nsamples = 49\nvalue = [10, 39]\nclass = Baja", fillcolor="#6cb6ec"] ;
18 -> 19 ;
20 [label="entropy = 0.995\nsamples = 24\nvalue = [11, 13]\nclass = Baja", fillcolor="#e1f0fb"] ;
18 -> 20 ;
21 [label="Payment Delay <= -1.427\nentropy = 0.394\nsamples = 219\nvalue = [17, 202]\nclass = Baja", fillcolor="#4aa5e7"] ;
7 -> 21 ;
22 [label="Support Calls <= -0.444\nentropy = 0.684\nsamples = 22\nvalue = [4, 18]\nclass = Baja", fillcolor="#65b3eb"] ;
21 -> 22 ;
23 [label="entropy = 0.0\nsamples = 10\nvalue = [0, 10]\nclass = Baja", fillcolor="#399de5"] ;
22 -> 23 ;
24 [label="entropy = 0.918\nsamples = 12\nvalue = [4, 8]\nclass = Baja", fillcolor="#9ccef2"] ;
22 -> 24 ;
25 [label="Last Interaction <= -0.947\nentropy = 0.351\nsamples = 197\nvalue = [13, 184]\nclass = Baja", fillcolor="#47a4e7"] ;
21 -> 25 ;
26 [label="Total Spend <= -1.683\nentropy = 0.129\nsamples = 56\nvalue = [1, 55]\nclass = Baja", fillcolor="#3d9fe5"] ;
25 -> 26 ;
27 [label="entropy = 0.0\nsamples = 45\nvalue = [0, 45]\nclass = Baja", fillcolor="#399de5"] ;
26 -> 27 ;
28 [label="entropy = 0.439\nsamples = 11\nvalue = [1, 10]\nclass = Baja", fillcolor="#4da7e8"] ;
26 -> 28 ;
29 [label="Last Interaction <= -0.715\nentropy = 0.42\nsamples = 141\nvalue = [12, 129]\nclass = Baja", fillcolor="#4ba6e7"] ;
25 -> 29 ;
30 [label="entropy = 0.722\nsamples = 20\nvalue = [4, 16]\nclass = Baja", fillcolor="#6ab6ec"] ;
29 -> 30 ;
31 [label="entropy = 0.351\nsamples = 121\nvalue = [8, 113]\nclass = Baja", fillcolor="#47a4e7"] ;
29 -> 31 ;
32 [label="Age <= -1.595\nentropy = 0.651\nsamples = 2160\nvalue = [361, 1799]\nclass = Baja", fillcolor="#61b1ea"] ;
6 -> 32 ;
33 [label="Gender_Female <= 0.103\nentropy = 0.583\nsamples = 616\nvalue = [86, 530]\nclass = Baja", fillcolor="#59ade9"] ;
32 -> 33 ;
34 [label="Total Spend <= -0.54\nentropy = 0.664\nsamples = 330\nvalue = [57, 273]\nclass = Baja", fillcolor="#62b1ea"] ;
33 -> 34 ;
35 [label="Last Interaction <= 0.33\nentropy = 0.686\nsamples = 312\nvalue = [57, 255]\nclass = Baja", fillcolor="#65b3eb"] ;
34 -> 35 ;
36 [label="entropy = 0.714\nsamples = 260\nvalue = [51, 209]\nclass = Baja", fillcolor="#69b5eb"] ;
35 -> 36 ;
37 [label="entropy = 0.516\nsamples = 52\nvalue = [6, 46]\nclass = Baja", fillcolor="#53aae8"] ;
35 -> 37 ;
38 [label="entropy = 0.0\nsamples = 18\nvalue = [0, 18]\nclass = Baja", fillcolor="#399de5"] ;
34 -> 38 ;
39 [label="Last Interaction <= -1.179\nentropy = 0.473\nsamples = 286\nvalue = [29, 257]\nclass = Baja", fillcolor="#4fa8e8"] ;
33 -> 39 ;
40 [label="Total Spend <= -0.963\nentropy = 0.211\nsamples = 60\nvalue = [2, 58]\nclass = Baja", fillcolor="#40a0e6"] ;
39 -> 40 ;
41 [label="entropy = 0.0\nsamples = 38\nvalue = [0, 38]\nclass = Baja", fillcolor="#399de5"] ;
40 -> 41 ;
42 [label="entropy = 0.439\nsamples = 22\nvalue = [2, 20]\nclass = Baja", fillcolor="#4da7e8"] ;
40 -> 42 ;
43 [label="Payment Delay <= -1.191\nentropy = 0.528\nsamples = 226\nvalue = [27, 199]\nclass = Baja", fillcolor="#54aae9"] ;
39 -> 43 ;
44 [label="entropy = 0.737\nsamples = 53\nvalue = [11, 42]\nclass = Baja", fillcolor="#6db7ec"] ;
43 -> 44 ;
45 [label="entropy = 0.445\nsamples = 173\nvalue = [16, 157]\nclass = Baja", fillcolor="#4da7e8"] ;
43 -> 45 ;
46 [label="Support Calls <= -1.08\nentropy = 0.676\nsamples = 1544\nvalue = [275, 1269]\nclass = Baja", fillcolor="#64b2eb"] ;
32 -> 46 ;
47 [label="Last Interaction <= 0.678\nentropy = 0.756\nsamples = 381\nvalue = [83, 298]\nclass = Baja", fillcolor="#70b8ec"] ;
46 -> 47 ;
48 [label="Payment Delay <= -1.309\nentropy = 0.741\nsamples = 367\nvalue = [77, 290]\nclass = Baja", fillcolor="#6eb7ec"] ;
47 -> 48 ;
49 [label="entropy = 0.91\nsamples = 43\nvalue = [14.0, 29.0]\nclass = Baja", fillcolor="#99ccf2"] ;
48 -> 49 ;
50 [label="entropy = 0.711\nsamples = 324\nvalue = [63, 261]\nclass = Baja", fillcolor="#69b5eb"] ;
48 -> 50 ;
51 [label="Total Spend <= -0.811\nentropy = 0.985\nsamples = 14\nvalue = [6, 8]\nclass = Baja", fillcolor="#cee6f8"] ;
47 -> 51 ;
52 [label="entropy = 0.985\nsamples = 7\nvalue = [4, 3]\nclass = Recuperado", fillcolor="#f8e0ce"] ;
51 -> 52 ;
53 [label="entropy = 0.863\nsamples = 7\nvalue = [2, 5]\nclass = Baja", fillcolor="#88c4ef"] ;
51 -> 53 ;
54 [label="Total Spend <= -1.632\nentropy = 0.646\nsamples = 1163\nvalue = [192, 971]\nclass = Baja", fillcolor="#60b0ea"] ;
46 -> 54 ;
55 [label="Age <= -1.438\nentropy = 0.961\nsamples = 26\nvalue = [10, 16]\nclass = Baja", fillcolor="#b5daf5"] ;
54 -> 55 ;
56 [label="entropy = 0.722\nsamples = 10\nvalue = [2, 8]\nclass = Baja", fillcolor="#6ab6ec"] ;
55 -> 56 ;
57 [label="entropy = 1.0\nsamples = 16\nvalue = [8, 8]\nclass = Recuperado", fillcolor="#ffffff"] ;
55 -> 57 ;
58 [label="Total Spend <= -1.613\nentropy = 0.634\nsamples = 1137\nvalue = [182, 955]\nclass = Baja", fillcolor="#5fb0ea"] ;
54 -> 58 ;
59 [label="entropy = 0.0\nsamples = 18\nvalue = [0, 18]\nclass = Baja", fillcolor="#399de5"] ;
58 -> 59 ;
60 [label="entropy = 0.641\nsamples = 1119\nvalue = [182, 937]\nclass = Baja", fillcolor="#5fb0ea"] ;
58 -> 60 ;
61 [label="Total Spend <= -0.489\nentropy = 0.572\nsamples = 1306\nvalue = [177.0, 1129.0]\nclass = Baja", fillcolor="#58ace9"] ;
5 -> 61 ;
62 [label="Age <= -1.438\nentropy = 0.579\nsamples = 1283\nvalue = [177, 1106]\nclass = Baja", fillcolor="#59ade9"] ;
61 -> 62 ;
63 [label="Total Spend <= -0.516\nentropy = 0.622\nsamples = 756\nvalue = [117, 639]\nclass = Baja", fillcolor="#5dafea"] ;
62 -> 63 ;
64 [label="Total Spend <= -0.538\nentropy = 0.627\nsamples = 746\nvalue = [117, 629]\nclass = Baja", fillcolor="#5eafea"] ;
63 -> 64 ;
65 [label="Total Spend <= -0.602\nentropy = 0.62\nsamples = 739\nvalue = [114, 625]\nclass = Baja", fillcolor="#5dafea"] ;
64 -> 65 ;
66 [label="entropy = 0.633\nsamples = 708\nvalue = [113, 595]\nclass = Baja", fillcolor="#5fb0ea"] ;
65 -> 66 ;
67 [label="entropy = 0.206\nsamples = 31\nvalue = [1, 30]\nclass = Baja", fillcolor="#40a0e6"] ;
65 -> 67 ;
68 [label="entropy = 0.985\nsamples = 7\nvalue = [3, 4]\nclass = Baja", fillcolor="#cee6f8"] ;
64 -> 68 ;
69 [label="entropy = 0.0\nsamples = 10\nvalue = [0, 10]\nclass = Baja", fillcolor="#399de5"] ;
63 -> 69 ;
70 [label="Last Interaction <= 1.027\nentropy = 0.511\nsamples = 527\nvalue = [60, 467]\nclass = Baja", fillcolor="#52aae8"] ;
62 -> 70 ;
71 [label="Total Spend <= -1.091\nentropy = 0.337\nsamples = 112\nvalue = [7, 105]\nclass = Baja", fillcolor="#46a4e7"] ;
70 -> 71 ;
72 [label="Payment Delay <= 0.339\nentropy = 0.478\nsamples = 68\nvalue = [7, 61]\nclass = Baja", fillcolor="#50a8e8"] ;
71 -> 72 ;
73 [label="entropy = 0.318\nsamples = 52\nvalue = [3, 49]\nclass = Baja", fillcolor="#45a3e7"] ;
72 -> 73 ;
74 [label="entropy = 0.811\nsamples = 16\nvalue = [4, 12]\nclass = Baja", fillcolor="#7bbeee"] ;
72 -> 74 ;
75 [label="entropy = 0.0\nsamples = 44\nvalue = [0, 44]\nclass = Baja", fillcolor="#399de5"] ;
71 -> 75 ;
76 [label="Total Spend <= -0.56\nentropy = 0.551\nsamples = 415\nvalue = [53, 362]\nclass = Baja", fillcolor="#56abe9"] ;
70 -> 76 ;
77 [label="Total Spend <= -1.88\nentropy = 0.533\nsamples = 404\nvalue = [49, 355]\nclass = Baja", fillcolor="#54abe9"] ;
76 -> 77 ;
78 [label="entropy = 0.691\nsamples = 54\nvalue = [10, 44]\nclass = Baja", fillcolor="#66b3eb"] ;
77 -> 78 ;
79 [label="entropy = 0.504\nsamples = 350\nvalue = [39, 311]\nclass = Baja", fillcolor="#52a9e8"] ;
77 -> 79 ;
80 [label="entropy = 0.946\nsamples = 11\nvalue = [4, 7]\nclass = Baja", fillcolor="#aad5f4"] ;
76 -> 80 ;
81 [label="entropy = 0.0\nsamples = 23\nvalue = [0, 23]\nclass = Baja", fillcolor="#399de5"] ;
61 -> 81 ;
82 [label="Last Interaction <= 1.607\nentropy = 0.651\nsamples = 24719\nvalue = [4128, 20591]\nclass = Baja", fillcolor="#61b1ea"] ;
4 -> 82 ;
83 [label="Age <= -0.888\nentropy = 0.647\nsamples = 23038\nvalue = [3810.0, 19228.0]\nclass = Baja", fillcolor="#60b0ea"] ;
82 -> 83 ;
84 [label="Total Spend <= -0.557\nentropy = 0.688\nsamples = 2144\nvalue = [394, 1750]\nclass = Baja", fillcolor="#66b3eb"] ;
83 -> 84 ;
85 [label="Total Spend <= -0.559\nentropy = 0.696\nsamples = 2047\nvalue = [384, 1663]\nclass = Baja", fillcolor="#67b4eb"] ;
84 -> 85 ;
86 [label="Last Interaction <= 0.562\nentropy = 0.694\nsamples = 2038\nvalue = [380, 1658]\nclass = Baja", fillcolor="#66b3eb"] ;
85 -> 86 ;
87 [label="Total Spend <= -0.576\nentropy = 0.714\nsamples = 1363\nvalue = [267, 1096]\nclass = Baja", fillcolor="#69b5eb"] ;
86 -> 87 ;
88 [label="entropy = 0.717\nsamples = 1352\nvalue = [267, 1085]\nclass = Baja", fillcolor="#6ab5eb"] ;
87 -> 88 ;
89 [label="entropy = 0.0\nsamples = 11\nvalue = [0, 11]\nclass = Baja", fillcolor="#399de5"] ;
87 -> 89 ;
90 [label="Payment Delay <= -0.015\nentropy = 0.652\nsamples = 675\nvalue = [113.0, 562.0]\nclass = Baja", fillcolor="#61b1ea"] ;
86 -> 90 ;
91 [label="entropy = 0.608\nsamples = 456\nvalue = [68, 388]\nclass = Baja", fillcolor="#5caeea"] ;
90 -> 91 ;
92 [label="entropy = 0.733\nsamples = 219\nvalue = [45, 174]\nclass = Baja", fillcolor="#6cb6ec"] ;
90 -> 92 ;
93 [label="entropy = 0.991\nsamples = 9\nvalue = [4, 5]\nclass = Baja", fillcolor="#d7ebfa"] ;
85 -> 93 ;
94 [label="Payment Delay <= 0.574\nentropy = 0.479\nsamples = 97\nvalue = [10, 87]\nclass = Baja", fillcolor="#50a8e8"] ;
84 -> 94 ;
95 [label="Payment Delay <= -1.074\nentropy = 0.365\nsamples = 86\nvalue = [6, 80]\nclass = Baja", fillcolor="#48a4e7"] ;
94 -> 95 ;
96 [label="Support Calls <= -1.08\nentropy = 0.663\nsamples = 29\nvalue = [5, 24]\nclass = Baja", fillcolor="#62b1ea"] ;
95 -> 96 ;
97 [label="entropy = 0.985\nsamples = 7\nvalue = [3, 4]\nclass = Baja", fillcolor="#cee6f8"] ;
96 -> 97 ;
98 [label="entropy = 0.439\nsamples = 22\nvalue = [2, 20]\nclass = Baja", fillcolor="#4da7e8"] ;
96 -> 98 ;
99 [label="Last Interaction <= -1.295\nentropy = 0.127\nsamples = 57\nvalue = [1, 56]\nclass = Baja", fillcolor="#3d9fe5"] ;
95 -> 99 ;
100 [label="entropy = 0.592\nsamples = 7\nvalue = [1, 6]\nclass = Baja", fillcolor="#5aade9"] ;
99 -> 100 ;
101 [label="entropy = 0.0\nsamples = 50\nvalue = [0, 50]\nclass = Baja", fillcolor="#399de5"] ;
99 -> 101 ;
102 [label="entropy = 0.946\nsamples = 11\nvalue = [4, 7]\nclass = Baja", fillcolor="#aad5f4"] ;
94 -> 102 ;
103 [label="Total Spend <= -0.473\nentropy = 0.643\nsamples = 20894\nvalue = [3416, 17478]\nclass = Baja", fillcolor="#60b0ea"] ;
83 -> 103 ;
104 [label="Total Spend <= -0.492\nentropy = 0.642\nsamples = 20845\nvalue = [3401, 17444]\nclass = Baja", fillcolor="#60b0ea"] ;
103 -> 104 ;
105 [label="Age <= 0.996\nentropy = 0.643\nsamples = 20648\nvalue = [3381, 17267]\nclass = Baja", fillcolor="#60b0ea"] ;
104 -> 105 ;
106 [label="Total Spend <= -0.915\nentropy = 0.634\nsamples = 13400\nvalue = [2144, 11256]\nclass = Baja", fillcolor="#5fb0ea"] ;
105 -> 106 ;
107 [label="entropy = 0.625\nsamples = 9844\nvalue = [1537, 8307]\nclass = Baja", fillcolor="#5eafea"] ;
106 -> 107 ;
108 [label="entropy = 0.659\nsamples = 3556\nvalue = [607, 2949]\nclass = Baja", fillcolor="#62b1ea"] ;
106 -> 108 ;
109 [label="Total Spend <= -0.59\nentropy = 0.659\nsamples = 7248\nvalue = [1237, 6011]\nclass = Baja", fillcolor="#62b1ea"] ;
105 -> 109 ;
110 [label="entropy = 0.666\nsamples = 6826\nvalue = [1186, 5640]\nclass = Baja", fillcolor="#63b2ea"] ;
109 -> 110 ;
111 [label="entropy = 0.532\nsamples = 422\nvalue = [51, 371]\nclass = Baja", fillcolor="#54aae9"] ;
109 -> 111 ;
112 [label="Total Spend <= -0.485\nentropy = 0.474\nsamples = 197\nvalue = [20, 177]\nclass = Baja", fillcolor="#4fa8e8"] ;
104 -> 112 ;
113 [label="Age <= -0.456\nentropy = 0.144\nsamples = 49\nvalue = [1.0, 48.0]\nclass = Baja", fillcolor="#3d9fe6"] ;
112 -> 113 ;
114 [label="entropy = 0.592\nsamples = 7\nvalue = [1, 6]\nclass = Baja", fillcolor="#5aade9"] ;
113 -> 114 ;
115 [label="entropy = 0.0\nsamples = 42\nvalue = [0, 42]\nclass = Baja", fillcolor="#399de5"] ;
113 -> 115 ;
116 [label="Last Interaction <= -1.179\nentropy = 0.553\nsamples = 148\nvalue = [19, 129]\nclass = Baja", fillcolor="#56abe9"] ;
112 -> 116 ;
117 [label="entropy = 0.0\nsamples = 18\nvalue = [0, 18]\nclass = Baja", fillcolor="#399de5"] ;
116 -> 117 ;
118 [label="entropy = 0.6\nsamples = 130\nvalue = [19, 111]\nclass = Baja", fillcolor="#5baee9"] ;
116 -> 118 ;
119 [label="Payment Delay <= -1.074\nentropy = 0.889\nsamples = 49\nvalue = [15, 34]\nclass = Baja", fillcolor="#90c8f0"] ;
103 -> 119 ;
120 [label="entropy = 0.994\nsamples = 11\nvalue = [6, 5]\nclass = Recuperado", fillcolor="#fbeade"] ;
119 -> 120 ;
121 [label="Support Calls <= -1.08\nentropy = 0.79\nsamples = 38\nvalue = [9, 29]\nclass = Baja", fillcolor="#76bbed"] ;
119 -> 121 ;
122 [label="entropy = 0.98\nsamples = 12\nvalue = [5, 7]\nclass = Baja", fillcolor="#c6e3f8"] ;
121 -> 122 ;
123 [label="Payment Delay <= -0.485\nentropy = 0.619\nsamples = 26\nvalue = [4, 22]\nclass = Baja", fillcolor="#5dafea"] ;
121 -> 123 ;
124 [label="entropy = 0.0\nsamples = 9\nvalue = [0, 9]\nclass = Baja", fillcolor="#399de5"] ;
123 -> 124 ;
125 [label="entropy = 0.787\nsamples = 17\nvalue = [4, 13]\nclass = Baja", fillcolor="#76bbed"] ;
123 -> 125 ;
126 [label="Total Spend <= -2.07\nentropy = 0.7\nsamples = 1681\nvalue = [318, 1363]\nclass = Baja", fillcolor="#67b4eb"] ;
82 -> 126 ;
127 [label="Age <= 0.525\nentropy = 0.971\nsamples = 35\nvalue = [14, 21]\nclass = Baja", fillcolor="#bddef6"] ;
126 -> 127 ;
128 [label="Payment Delay <= -0.662\nentropy = 0.831\nsamples = 19\nvalue = [5, 14]\nclass = Baja", fillcolor="#80c0ee"] ;
127 -> 128 ;
129 [label="entropy = 0.994\nsamples = 11\nvalue = [5, 6]\nclass = Baja", fillcolor="#deeffb"] ;
128 -> 129 ;
130 [label="entropy = 0.0\nsamples = 8\nvalue = [0, 8]\nclass = Baja", fillcolor="#399de5"] ;
128 -> 130 ;
131 [label="Total Spend <= -2.089\nentropy = 0.989\nsamples = 16\nvalue = [9, 7]\nclass = Recuperado", fillcolor="#f9e3d3"] ;
127 -> 131 ;
132 [label="entropy = 0.863\nsamples = 7\nvalue = [2, 5]\nclass = Baja", fillcolor="#88c4ef"] ;
131 -> 132 ;
133 [label="entropy = 0.764\nsamples = 9\nvalue = [7, 2]\nclass = Recuperado", fillcolor="#eca572"] ;
131 -> 133 ;
134 [label="Payment Delay <= -1.427\nentropy = 0.69\nsamples = 1646\nvalue = [304, 1342]\nclass = Baja", fillcolor="#66b3eb"] ;
126 -> 134 ;
135 [label="Total Spend <= -1.699\nentropy = 0.821\nsamples = 164\nvalue = [42, 122]\nclass = Baja", fillcolor="#7dbfee"] ;
134 -> 135 ;
136 [label="Contract Length_Monthly <= 0.667\nentropy = 0.996\nsamples = 39\nvalue = [18, 21]\nclass = Baja", fillcolor="#e3f1fb"] ;
135 -> 136 ;
137 [label="Contract Length_Annual <= 0.226\nentropy = 0.98\nsamples = 24\nvalue = [14, 10]\nclass = Recuperado", fillcolor="#f8dbc6"] ;
136 -> 137 ;
138 [label="entropy = 0.75\nsamples = 14\nvalue = [11, 3]\nclass = Recuperado", fillcolor="#eca36f"] ;
137 -> 138 ;
139 [label="entropy = 0.881\nsamples = 10\nvalue = [3, 7]\nclass = Baja", fillcolor="#8ec7f0"] ;
137 -> 139 ;
140 [label="Total Spend <= -1.837\nentropy = 0.837\nsamples = 15\nvalue = [4, 11]\nclass = Baja", fillcolor="#81c1ee"] ;
136 -> 140 ;
141 [label="entropy = 0.592\nsamples = 7\nvalue = [1, 6]\nclass = Baja", fillcolor="#5aade9"] ;
140 -> 141 ;
142 [label="entropy = 0.954\nsamples = 8\nvalue = [3, 5]\nclass = Baja", fillcolor="#b0d8f5"] ;
140 -> 142 ;
143 [label="Gender_Female <= 0.103\nentropy = 0.706\nsamples = 125\nvalue = [24, 101]\nclass = Baja", fillcolor="#68b4eb"] ;
135 -> 143 ;
144 [label="Age <= 1.388\nentropy = 0.554\nsamples = 70\nvalue = [9, 61]\nclass = Baja", fillcolor="#56abe9"] ;
143 -> 144 ;
145 [label="entropy = 0.636\nsamples = 56\nvalue = [9, 47]\nclass = Baja", fillcolor="#5fb0ea"] ;
144 -> 145 ;
146 [label="entropy = 0.0\nsamples = 14\nvalue = [0, 14]\nclass = Baja", fillcolor="#399de5"] ;
144 -> 146 ;
147 [label="Support Calls <= -1.08\nentropy = 0.845\nsamples = 55\nvalue = [15.0, 40.0]\nclass = Baja", fillcolor="#83c2ef"] ;
143 -> 147 ;
148 [label="entropy = 0.65\nsamples = 18\nvalue = [3, 15]\nclass = Baja", fillcolor="#61b1ea"] ;
147 -> 148 ;
149 [label="entropy = 0.909\nsamples = 37\nvalue = [12, 25]\nclass = Baja", fillcolor="#98ccf1"] ;
147 -> 149 ;
150 [label="Total Spend <= -1.914\nentropy = 0.673\nsamples = 1482\nvalue = [262, 1220]\nclass = Baja", fillcolor="#64b2eb"] ;
134 -> 150 ;
151 [label="Payment Delay <= -0.132\nentropy = 0.531\nsamples = 166\nvalue = [20, 146]\nclass = Baja", fillcolor="#54aae9"] ;
150 -> 151 ;
152 [label="Age <= -0.81\nentropy = 0.374\nsamples = 97\nvalue = [7.0, 90.0]\nclass = Baja", fillcolor="#48a5e7"] ;
151 -> 152 ;
153 [label="entropy = 0.863\nsamples = 14\nvalue = [4, 10]\nclass = Baja", fillcolor="#88c4ef"] ;
152 -> 153 ;
154 [label="entropy = 0.224\nsamples = 83\nvalue = [3, 80]\nclass = Baja", fillcolor="#40a1e6"] ;
152 -> 154 ;
155 [label="Age <= -0.574\nentropy = 0.698\nsamples = 69\nvalue = [13, 56]\nclass = Baja", fillcolor="#67b4eb"] ;
151 -> 155 ;
156 [label="entropy = 0.0\nsamples = 12\nvalue = [0, 12]\nclass = Baja", fillcolor="#399de5"] ;
155 -> 156 ;
157 [label="entropy = 0.775\nsamples = 57\nvalue = [13, 44]\nclass = Baja", fillcolor="#74baed"] ;
155 -> 157 ;
158 [label="Support Calls <= -1.08\nentropy = 0.689\nsamples = 1316\nvalue = [242.0, 1074.0]\nclass = Baja", fillcolor="#66b3eb"] ;
150 -> 158 ;
159 [label="Gender_Female <= 0.103\nentropy = 0.772\nsamples = 313\nvalue = [71.0, 242.0]\nclass = Baja", fillcolor="#73baed"] ;
158 -> 159 ;
160 [label="entropy = 0.655\nsamples = 166\nvalue = [28.0, 138.0]\nclass = Baja", fillcolor="#61b1ea"] ;
159 -> 160 ;
161 [label="entropy = 0.872\nsamples = 147\nvalue = [43, 104]\nclass = Baja", fillcolor="#8bc6f0"] ;
159 -> 161 ;
162 [label="Age <= -0.574\nentropy = 0.659\nsamples = 1003\nvalue = [171, 832]\nclass = Baja", fillcolor="#62b1ea"] ;
158 -> 162 ;
163 [label="entropy = 0.528\nsamples = 201\nvalue = [24, 177]\nclass = Baja", fillcolor="#54aae9"] ;
162 -> 163 ;
164 [label="entropy = 0.687\nsamples = 802\nvalue = [147, 655]\nclass = Baja", fillcolor="#65b3eb"] ;
162 -> 164 ;
165 [label="Age <= 0.917\nentropy = 0.616\nsamples = 7377\nvalue = [1124, 6253]\nclass = Baja", fillcolor="#5dafea"] ;
3 -> 165 ;
166 [label="Total Spend <= -2.066\nentropy = 0.645\nsamples = 5143\nvalue = [846, 4297]\nclass = Baja", fillcolor="#60b0ea"] ;
165 -> 166 ;
167 [label="Payment Delay <= 0.221\nentropy = 0.831\nsamples = 99\nvalue = [26.0, 73.0]\nclass = Baja", fillcolor="#80c0ee"] ;
166 -> 167 ;
168 [label="Age <= 0.603\nentropy = 0.732\nsamples = 78\nvalue = [16.0, 62.0]\nclass = Baja", fillcolor="#6cb6ec"] ;
167 -> 168 ;
169 [label="Payment Delay <= -0.721\nentropy = 0.644\nsamples = 67\nvalue = [11, 56]\nclass = Baja", fillcolor="#60b0ea"] ;
168 -> 169 ;
170 [label="Contract Length_Annual <= 0.226\nentropy = 0.316\nsamples = 35\nvalue = [2, 33]\nclass = Baja", fillcolor="#45a3e7"] ;
169 -> 170 ;
171 [label="entropy = 0.0\nsamples = 23\nvalue = [0, 23]\nclass = Baja", fillcolor="#399de5"] ;
170 -> 171 ;
172 [label="entropy = 0.65\nsamples = 12\nvalue = [2, 10]\nclass = Baja", fillcolor="#61b1ea"] ;
170 -> 172 ;
173 [label="Total Spend <= -2.085\nentropy = 0.857\nsamples = 32\nvalue = [9, 23]\nclass = Baja", fillcolor="#86c3ef"] ;
169 -> 173 ;
174 [label="entropy = 0.0\nsamples = 8\nvalue = [0, 8]\nclass = Baja", fillcolor="#399de5"] ;
173 -> 174 ;
175 [label="Last Interaction <= 0.156\nentropy = 0.954\nsamples = 24\nvalue = [9, 15]\nclass = Baja", fillcolor="#b0d8f5"] ;
173 -> 175 ;
176 [label="entropy = 0.696\nsamples = 16\nvalue = [3, 13]\nclass = Baja", fillcolor="#67b4eb"] ;
175 -> 176 ;
177 [label="entropy = 0.811\nsamples = 8\nvalue = [6, 2]\nclass = Recuperado", fillcolor="#eeab7b"] ;
175 -> 177 ;
178 [label="entropy = 0.994\nsamples = 11\nvalue = [5, 6]\nclass = Baja", fillcolor="#deeffb"] ;
168 -> 178 ;
179 [label="Payment Delay <= 0.456\nentropy = 0.998\nsamples = 21\nvalue = [10, 11]\nclass = Baja", fillcolor="#edf6fd"] ;
167 -> 179 ;
180 [label="entropy = 0.764\nsamples = 9\nvalue = [7, 2]\nclass = Recuperado", fillcolor="#eca572"] ;
179 -> 180 ;
181 [label="entropy = 0.811\nsamples = 12\nvalue = [3, 9]\nclass = Baja", fillcolor="#7bbeee"] ;
179 -> 181 ;
182 [label="Payment Delay <= -1.309\nentropy = 0.64\nsamples = 5044\nvalue = [820, 4224]\nclass = Baja", fillcolor="#5fb0ea"] ;
166 -> 182 ;
183 [label="Last Interaction <= -1.411\nentropy = 0.575\nsamples = 755\nvalue = [103, 652]\nclass = Baja", fillcolor="#58ace9"] ;
182 -> 183 ;
184 [label="Age <= -1.281\nentropy = 0.242\nsamples = 50\nvalue = [2, 48]\nclass = Baja", fillcolor="#41a1e6"] ;
183 -> 184 ;
185 [label="entropy = 0.722\nsamples = 10\nvalue = [2, 8]\nclass = Baja", fillcolor="#6ab6ec"] ;
184 -> 185 ;
186 [label="entropy = 0.0\nsamples = 40\nvalue = [0, 40]\nclass = Baja", fillcolor="#399de5"] ;
184 -> 186 ;
187 [label="Total Spend <= -1.262\nentropy = 0.593\nsamples = 705\nvalue = [101.0, 604.0]\nclass = Baja", fillcolor="#5aade9"] ;
183 -> 187 ;
188 [label="Total Spend <= -1.345\nentropy = 0.519\nsamples = 352\nvalue = [41, 311]\nclass = Baja", fillcolor="#53aae8"] ;
187 -> 188 ;
189 [label="Last Interaction <= -0.134\nentropy = 0.559\nsamples = 314\nvalue = [41, 273]\nclass = Baja", fillcolor="#57ace9"] ;
188 -> 189 ;
190 [label="entropy = 0.676\nsamples = 118\nvalue = [21, 97]\nclass = Baja", fillcolor="#64b2eb"] ;
189 -> 190 ;
191 [label="entropy = 0.475\nsamples = 196\nvalue = [20, 176]\nclass = Baja", fillcolor="#50a8e8"] ;
189 -> 191 ;
192 [label="entropy = 0.0\nsamples = 38\nvalue = [0, 38]\nclass = Baja", fillcolor="#399de5"] ;
188 -> 192 ;
193 [label="Total Spend <= -1.197\nentropy = 0.658\nsamples = 353\nvalue = [60, 293]\nclass = Baja", fillcolor="#62b1ea"] ;
187 -> 193 ;
194 [label="Payment Delay <= -1.545\nentropy = 0.906\nsamples = 28\nvalue = [9, 19]\nclass = Baja", fillcolor="#97cbf1"] ;
193 -> 194 ;
195 [label="entropy = 0.503\nsamples = 9\nvalue = [1, 8]\nclass = Baja", fillcolor="#52a9e8"] ;
194 -> 195 ;
196 [label="entropy = 0.982\nsamples = 19\nvalue = [8, 11]\nclass = Baja", fillcolor="#c9e4f8"] ;
194 -> 196 ;
197 [label="Total Spend <= -1.144\nentropy = 0.627\nsamples = 325\nvalue = [51, 274]\nclass = Baja", fillcolor="#5eafea"] ;
193 -> 197 ;
198 [label="entropy = 0.0\nsamples = 21\nvalue = [0, 21]\nclass = Baja", fillcolor="#399de5"] ;
197 -> 198 ;
199 [label="entropy = 0.653\nsamples = 304\nvalue = [51, 253]\nclass = Baja", fillcolor="#61b1ea"] ;
197 -> 199 ;
200 [label="Total Spend <= -2.014\nentropy = 0.651\nsamples = 4289\nvalue = [717, 3572]\nclass = Baja", fillcolor="#61b1ea"] ;
182 -> 200 ;
201 [label="Payment Delay <= -0.368\nentropy = 0.484\nsamples = 143\nvalue = [15, 128]\nclass = Baja", fillcolor="#50a8e8"] ;
200 -> 201 ;
202 [label="Last Interaction <= 1.027\nentropy = 0.705\nsamples = 73\nvalue = [14, 59]\nclass = Baja", fillcolor="#68b4eb"] ;
201 -> 202 ;
203 [label="Payment Delay <= -1.191\nentropy = 0.758\nsamples = 64\nvalue = [14, 50]\nclass = Baja", fillcolor="#70b8ec"] ;
202 -> 203 ;
204 [label="entropy = 0.985\nsamples = 7\nvalue = [3, 4]\nclass = Baja", fillcolor="#cee6f8"] ;
203 -> 204 ;
205 [label="entropy = 0.708\nsamples = 57\nvalue = [11, 46]\nclass = Baja", fillcolor="#68b4eb"] ;
203 -> 205 ;
206 [label="entropy = 0.0\nsamples = 9\nvalue = [0, 9]\nclass = Baja", fillcolor="#399de5"] ;
202 -> 206 ;
207 [label="Age <= 0.682\nentropy = 0.108\nsamples = 70\nvalue = [1, 69]\nclass = Baja", fillcolor="#3c9ee5"] ;
201 -> 207 ;
208 [label="entropy = 0.0\nsamples = 63\nvalue = [0, 63]\nclass = Baja", fillcolor="#399de5"] ;
207 -> 208 ;
209 [label="entropy = 0.592\nsamples = 7\nvalue = [1, 6]\nclass = Baja", fillcolor="#5aade9"] ;
207 -> 209 ;
210 [label="Total Spend <= -1.761\nentropy = 0.656\nsamples = 4146\nvalue = [702, 3444]\nclass = Baja", fillcolor="#61b1ea"] ;
200 -> 210 ;
211 [label="Last Interaction <= 1.143\nentropy = 0.713\nsamples = 685\nvalue = [134, 551]\nclass = Baja", fillcolor="#69b5eb"] ;
210 -> 211 ;
212 [label="Last Interaction <= 0.214\nentropy = 0.669\nsamples = 537\nvalue = [94, 443]\nclass = Baja", fillcolor="#63b2eb"] ;
211 -> 212 ;
213 [label="entropy = 0.722\nsamples = 350\nvalue = [70, 280]\nclass = Baja", fillcolor="#6ab6ec"] ;
212 -> 213 ;
214 [label="entropy = 0.553\nsamples = 187\nvalue = [24.0, 163.0]\nclass = Baja", fillcolor="#56abe9"] ;
212 -> 214 ;
215 [label="Total Spend <= -1.837\nentropy = 0.842\nsamples = 148\nvalue = [40, 108]\nclass = Baja", fillcolor="#82c1ef"] ;
211 -> 215 ;
216 [label="entropy = 0.777\nsamples = 109\nvalue = [25, 84]\nclass = Baja", fillcolor="#74baed"] ;
215 -> 216 ;
217 [label="entropy = 0.961\nsamples = 39\nvalue = [15, 24]\nclass = Baja", fillcolor="#b5daf5"] ;
215 -> 217 ;
218 [label="Total Spend <= -1.386\nentropy = 0.644\nsamples = 3461\nvalue = [568, 2893]\nclass = Baja", fillcolor="#60b0ea"] ;
210 -> 218 ;
219 [label="Contract Length_Annual <= 0.226\nentropy = 0.582\nsamples = 1041\nvalue = [145, 896]\nclass = Baja", fillcolor="#59ade9"] ;
218 -> 219 ;
220 [label="entropy = 0.62\nsamples = 701\nvalue = [108.0, 593.0]\nclass = Baja", fillcolor="#5dafea"] ;
219 -> 220 ;
221 [label="entropy = 0.496\nsamples = 340\nvalue = [37, 303]\nclass = Baja", fillcolor="#51a9e8"] ;
219 -> 221 ;
222 [label="Total Spend <= -1.383\nentropy = 0.669\nsamples = 2420\nvalue = [423.0, 1997.0]\nclass = Baja", fillcolor="#63b2eb"] ;
218 -> 222 ;
223 [label="entropy = 0.994\nsamples = 11\nvalue = [6, 5]\nclass = Recuperado", fillcolor="#fbeade"] ;
222 -> 223 ;
224 [label="entropy = 0.665\nsamples = 2409\nvalue = [417, 1992]\nclass = Baja", fillcolor="#62b2ea"] ;
222 -> 224 ;
225 [label="Payment Delay <= -1.427\nentropy = 0.542\nsamples = 2234\nvalue = [278, 1956]\nclass = Baja", fillcolor="#55abe9"] ;
165 -> 225 ;
226 [label="Last Interaction <= -1.528\nentropy = 0.697\nsamples = 218\nvalue = [41, 177]\nclass = Baja", fillcolor="#67b4eb"] ;
225 -> 226 ;
227 [label="entropy = 0.985\nsamples = 7\nvalue = [4, 3]\nclass = Recuperado", fillcolor="#f8e0ce"] ;
226 -> 227 ;
228 [label="Total Spend <= -0.515\nentropy = 0.67\nsamples = 211\nvalue = [37, 174]\nclass = Baja", fillcolor="#63b2eb"] ;
226 -> 228 ;
229 [label="Total Spend <= -2.038\nentropy = 0.689\nsamples = 201\nvalue = [37, 164]\nclass = Baja", fillcolor="#66b3eb"] ;
228 -> 229 ;
230 [label="entropy = 0.0\nsamples = 7\nvalue = [0, 7]\nclass = Baja", fillcolor="#399de5"] ;
229 -> 230 ;
231 [label="Total Spend <= -1.978\nentropy = 0.703\nsamples = 194\nvalue = [37, 157]\nclass = Baja", fillcolor="#68b4eb"] ;
229 -> 231 ;
232 [label="entropy = 0.985\nsamples = 7\nvalue = [3, 4]\nclass = Baja", fillcolor="#cee6f8"] ;
231 -> 232 ;
233 [label="Age <= 0.996\nentropy = 0.684\nsamples = 187\nvalue = [34, 153]\nclass = Baja", fillcolor="#65b3eb"] ;
231 -> 233 ;
234 [label="entropy = 0.0\nsamples = 10\nvalue = [0, 10]\nclass = Baja", fillcolor="#399de5"] ;
233 -> 234 ;
235 [label="entropy = 0.706\nsamples = 177\nvalue = [34, 143]\nclass = Baja", fillcolor="#68b4eb"] ;
233 -> 235 ;
236 [label="entropy = 0.0\nsamples = 10\nvalue = [0, 10]\nclass = Baja", fillcolor="#399de5"] ;
228 -> 236 ;
237 [label="Last Interaction <= -0.483\nentropy = 0.522\nsamples = 2016\nvalue = [237, 1779]\nclass = Baja", fillcolor="#53aae8"] ;
225 -> 237 ;
238 [label="Age <= 1.388\nentropy = 0.461\nsamples = 677\nvalue = [66, 611]\nclass = Baja", fillcolor="#4ea8e8"] ;
237 -> 238 ;
239 [label="Total Spend <= -1.919\nentropy = 0.529\nsamples = 300\nvalue = [36, 264]\nclass = Baja", fillcolor="#54aae9"] ;
238 -> 239 ;
240 [label="Payment Delay <= 0.103\nentropy = 0.84\nsamples = 26\nvalue = [7, 19]\nclass = Baja", fillcolor="#82c1ef"] ;
239 -> 240 ;
241 [label="Last Interaction <= -1.063\nentropy = 0.977\nsamples = 17\nvalue = [7, 10]\nclass = Baja", fillcolor="#c4e2f7"] ;
240 -> 241 ;
242 [label="entropy = 0.918\nsamples = 9\nvalue = [6, 3]\nclass = Recuperado", fillcolor="#f2c09c"] ;
241 -> 242 ;
243 [label="entropy = 0.544\nsamples = 8\nvalue = [1, 7]\nclass = Baja", fillcolor="#55abe9"] ;
241 -> 243 ;
244 [label="entropy = 0.0\nsamples = 9\nvalue = [0, 9]\nclass = Baja", fillcolor="#399de5"] ;
240 -> 244 ;
245 [label="Total Spend <= -1.797\nentropy = 0.487\nsamples = 274\nvalue = [29, 245]\nclass = Baja", fillcolor="#50a9e8"] ;
239 -> 245 ;
246 [label="entropy = 0.0\nsamples = 24\nvalue = [0, 24]\nclass = Baja", fillcolor="#399de5"] ;
245 -> 246 ;
247 [label="Total Spend <= -1.627\nentropy = 0.518\nsamples = 250\nvalue = [29, 221]\nclass = Baja", fillcolor="#53aae8"] ;
245 -> 247 ;
248 [label="entropy = 0.79\nsamples = 38\nvalue = [9, 29]\nclass = Baja", fillcolor="#76bbed"] ;
247 -> 248 ;
249 [label="entropy = 0.451\nsamples = 212\nvalue = [20, 192]\nclass = Baja", fillcolor="#4ea7e8"] ;
247 -> 249 ;
250 [label="Total Spend <= -1.547\nentropy = 0.401\nsamples = 377\nvalue = [30, 347]\nclass = Baja", fillcolor="#4aa5e7"] ;
238 -> 250 ;
251 [label="Payment Delay <= -0.015\nentropy = 0.159\nsamples = 129\nvalue = [3, 126]\nclass = Baja", fillcolor="#3e9fe6"] ;
250 -> 251 ;
252 [label="entropy = 0.0\nsamples = 77\nvalue = [0, 77]\nclass = Baja", fillcolor="#399de5"] ;
251 -> 252 ;
253 [label="Age <= 1.78\nentropy = 0.318\nsamples = 52\nvalue = [3, 49]\nclass = Baja", fillcolor="#45a3e7"] ;
251 -> 253 ;
254 [label="entropy = 0.439\nsamples = 33\nvalue = [3, 30]\nclass = Baja", fillcolor="#4da7e8"] ;
253 -> 254 ;
255 [label="entropy = 0.0\nsamples = 19\nvalue = [0, 19]\nclass = Baja", fillcolor="#399de5"] ;
253 -> 255 ;
256 [label="Total Spend <= -1.505\nentropy = 0.497\nsamples = 248\nvalue = [27, 221]\nclass = Baja", fillcolor="#51a9e8"] ;
250 -> 256 ;
257 [label="entropy = 1.0\nsamples = 8\nvalue = [4, 4]\nclass = Recuperado", fillcolor="#ffffff"] ;
256 -> 257 ;
258 [label="Total Spend <= -0.957\nentropy = 0.456\nsamples = 240\nvalue = [23, 217]\nclass = Baja", fillcolor="#4ea7e8"] ;
256 -> 258 ;
259 [label="entropy = 0.555\nsamples = 124\nvalue = [16, 108]\nclass = Baja", fillcolor="#56ace9"] ;
258 -> 259 ;
260 [label="entropy = 0.329\nsamples = 116\nvalue = [7, 109]\nclass = Baja", fillcolor="#46a3e7"] ;
258 -> 260 ;
261 [label="Last Interaction <= -0.367\nentropy = 0.551\nsamples = 1339\nvalue = [171, 1168]\nclass = Baja", fillcolor="#56abe9"] ;
237 -> 261 ;
262 [label="Payment Delay <= 0.221\nentropy = 0.811\nsamples = 68\nvalue = [17, 51]\nclass = Baja", fillcolor="#7bbeee"] ;
261 -> 262 ;
263 [label="Age <= 1.388\nentropy = 0.944\nsamples = 47\nvalue = [17, 30]\nclass = Baja", fillcolor="#a9d5f4"] ;
262 -> 263 ;
264 [label="Contract Length_Annual <= 0.226\nentropy = 0.982\nsamples = 19\nvalue = [11, 8]\nclass = Recuperado", fillcolor="#f8ddc9"] ;
263 -> 264 ;
265 [label="entropy = 0.845\nsamples = 11\nvalue = [8, 3]\nclass = Recuperado", fillcolor="#efb083"] ;
264 -> 265 ;
266 [label="entropy = 0.954\nsamples = 8\nvalue = [3, 5]\nclass = Baja", fillcolor="#b0d8f5"] ;
264 -> 266 ;
267 [label="Age <= 1.702\nentropy = 0.75\nsamples = 28\nvalue = [6, 22]\nclass = Baja", fillcolor="#6fb8ec"] ;
263 -> 267 ;
268 [label="entropy = 0.439\nsamples = 11\nvalue = [1, 10]\nclass = Baja", fillcolor="#4da7e8"] ;
267 -> 268 ;
269 [label="entropy = 0.874\nsamples = 17\nvalue = [5, 12]\nclass = Baja", fillcolor="#8bc6f0"] ;
267 -> 269 ;
270 [label="entropy = 0.0\nsamples = 21\nvalue = [0, 21]\nclass = Baja", fillcolor="#399de5"] ;
262 -> 270 ;
271 [label="Age <= 0.996\nentropy = 0.533\nsamples = 1271\nvalue = [154, 1117]\nclass = Baja", fillcolor="#54abe9"] ;
261 -> 271 ;
272 [label="Total Spend <= -1.874\nentropy = 0.345\nsamples = 93\nvalue = [6, 87]\nclass = Baja", fillcolor="#47a4e7"] ;
271 -> 272 ;
273 [label="Last Interaction <= 0.852\nentropy = 0.863\nsamples = 14\nvalue = [4, 10]\nclass = Baja", fillcolor="#88c4ef"] ;
272 -> 273 ;
274 [label="entropy = 0.0\nsamples = 7\nvalue = [0, 7]\nclass = Baja", fillcolor="#399de5"] ;
273 -> 274 ;
275 [label="entropy = 0.985\nsamples = 7\nvalue = [4, 3]\nclass = Recuperado", fillcolor="#f8e0ce"] ;
273 -> 275 ;
276 [label="Payment Delay <= 0.339\nentropy = 0.17\nsamples = 79\nvalue = [2, 77]\nclass = Baja", fillcolor="#3ea0e6"] ;
272 -> 276 ;
277 [label="entropy = 0.0\nsamples = 57\nvalue = [0, 57]\nclass = Baja", fillcolor="#399de5"] ;
276 -> 277 ;
278 [label="entropy = 0.439\nsamples = 22\nvalue = [2, 20]\nclass = Baja", fillcolor="#4da7e8"] ;
276 -> 278 ;
279 [label="Total Spend <= -2.056\nentropy = 0.545\nsamples = 1178\nvalue = [148, 1030]\nclass = Baja", fillcolor="#55abe9"] ;
271 -> 279 ;
280 [label="entropy = 0.0\nsamples = 22\nvalue = [0, 22]\nclass = Baja", fillcolor="#399de5"] ;
279 -> 280 ;
281 [label="Last Interaction <= -0.018\nentropy = 0.552\nsamples = 1156\nvalue = [148, 1008]\nclass = Baja", fillcolor="#56abe9"] ;
279 -> 281 ;
282 [label="entropy = 0.429\nsamples = 171\nvalue = [15, 156]\nclass = Baja", fillcolor="#4ca6e8"] ;
281 -> 282 ;
283 [label="entropy = 0.571\nsamples = 985\nvalue = [133, 852]\nclass = Baja", fillcolor="#58ace9"] ;
281 -> 283 ;
284 [label="Gender_Female <= 0.103\nentropy = 0.379\nsamples = 19241\nvalue = [1415, 17826]\nclass = Baja", fillcolor="#49a5e7"] ;
2 -> 284 ;
285 [label="Payment Delay <= 1.633\nentropy = 0.643\nsamples = 8631\nvalue = [1414, 7217]\nclass = Baja", fillcolor="#60b0ea"] ;
284 -> 285 ;
286 [label="Age <= 1.937\nentropy = 0.66\nsamples = 6006\nvalue = [1027, 4979]\nclass = Baja", fillcolor="#62b1ea"] ;
285 -> 286 ;
287 [label="Age <= -1.673\nentropy = 0.655\nsamples = 5883\nvalue = [993, 4890]\nclass = Baja", fillcolor="#61b1ea"] ;
286 -> 287 ;
288 [label="Support Calls <= -0.762\nentropy = 0.798\nsamples = 124\nvalue = [30, 94]\nclass = Baja", fillcolor="#78bced"] ;
287 -> 288 ;
289 [label="Total Spend <= -0.868\nentropy = 0.939\nsamples = 45\nvalue = [16.0, 29.0]\nclass = Baja", fillcolor="#a6d3f3"] ;
288 -> 289 ;
290 [label="Total Spend <= -1.452\nentropy = 0.98\nsamples = 36\nvalue = [15, 21]\nclass = Baja", fillcolor="#c6e3f8"] ;
289 -> 290 ;
291 [label="Total Spend <= -1.803\nentropy = 0.75\nsamples = 14\nvalue = [3, 11]\nclass = Baja", fillcolor="#6fb8ec"] ;
290 -> 291 ;
292 [label="entropy = 0.985\nsamples = 7\nvalue = [3, 4]\nclass = Baja", fillcolor="#cee6f8"] ;
291 -> 292 ;
293 [label="entropy = 0.0\nsamples = 7\nvalue = [0, 7]\nclass = Baja", fillcolor="#399de5"] ;
291 -> 293 ;
294 [label="Contract Length_Annual <= 0.226\nentropy = 0.994\nsamples = 22\nvalue = [12, 10]\nclass = Recuperado", fillcolor="#fbeade"] ;
290 -> 294 ;
295 [label="entropy = 0.863\nsamples = 14\nvalue = [10, 4]\nclass = Recuperado", fillcolor="#efb388"] ;
294 -> 295 ;
296 [label="entropy = 0.811\nsamples = 8\nvalue = [2, 6]\nclass = Baja", fillcolor="#7bbeee"] ;
294 -> 296 ;
297 [label="entropy = 0.503\nsamples = 9\nvalue = [1, 8]\nclass = Baja", fillcolor="#52a9e8"] ;
289 -> 297 ;
298 [label="Total Spend <= -1.714\nentropy = 0.674\nsamples = 79\nvalue = [14, 65]\nclass = Baja", fillcolor="#64b2eb"] ;
288 -> 298 ;
299 [label="Payment Delay <= 1.28\nentropy = 0.959\nsamples = 21\nvalue = [8, 13]\nclass = Baja", fillcolor="#b3d9f5"] ;
298 -> 299 ;
300 [label="entropy = 0.764\nsamples = 9\nvalue = [2, 7]\nclass = Baja", fillcolor="#72b9ec"] ;
299 -> 300 ;
301 [label="entropy = 1.0\nsamples = 12\nvalue = [6, 6]\nclass = Recuperado", fillcolor="#ffffff"] ;
299 -> 301 ;
302 [label="Total Spend <= -0.753\nentropy = 0.48\nsamples = 58\nvalue = [6, 52]\nclass = Baja", fillcolor="#50a8e8"] ;
298 -> 302 ;
303 [label="Total Spend <= -1.391\nentropy = 0.254\nsamples = 47\nvalue = [2, 45]\nclass = Baja", fillcolor="#42a1e6"] ;
302 -> 303 ;
304 [label="entropy = 0.544\nsamples = 16\nvalue = [2, 14]\nclass = Baja", fillcolor="#55abe9"] ;
303 -> 304 ;
305 [label="entropy = 0.0\nsamples = 31\nvalue = [0, 31]\nclass = Baja", fillcolor="#399de5"] ;
303 -> 305 ;
306 [label="entropy = 0.946\nsamples = 11\nvalue = [4, 7]\nclass = Baja", fillcolor="#aad5f4"] ;
302 -> 306 ;
307 [label="Payment Delay <= 1.162\nentropy = 0.651\nsamples = 5759\nvalue = [963, 4796]\nclass = Baja", fillcolor="#61b1ea"] ;
287 -> 307 ;
308 [label="Age <= -0.496\nentropy = 0.625\nsamples = 2497\nvalue = [390, 2107]\nclass = Baja", fillcolor="#5eafea"] ;
307 -> 308 ;
309 [label="Total Spend <= -0.532\nentropy = 0.57\nsamples = 794\nvalue = [107, 687]\nclass = Baja", fillcolor="#58ace9"] ;
308 -> 309 ;
310 [label="Total Spend <= -0.665\nentropy = 0.583\nsamples = 760\nvalue = [106.0, 654.0]\nclass = Baja", fillcolor="#59ade9"] ;
309 -> 310 ;
311 [label="entropy = 0.563\nsamples = 719\nvalue = [95, 624]\nclass = Baja", fillcolor="#57ace9"] ;
310 -> 311 ;
312 [label="entropy = 0.839\nsamples = 41\nvalue = [11, 30]\nclass = Baja", fillcolor="#82c1ef"] ;
310 -> 312 ;
313 [label="Age <= -0.731\nentropy = 0.191\nsamples = 34\nvalue = [1, 33]\nclass = Baja", fillcolor="#3fa0e6"] ;
309 -> 313 ;
314 [label="entropy = 0.0\nsamples = 25\nvalue = [0, 25]\nclass = Baja", fillcolor="#399de5"] ;
313 -> 314 ;
315 [label="entropy = 0.503\nsamples = 9\nvalue = [1, 8]\nclass = Baja", fillcolor="#52a9e8"] ;
313 -> 315 ;
316 [label="Total Spend <= -0.563\nentropy = 0.649\nsamples = 1703\nvalue = [283, 1420]\nclass = Baja", fillcolor="#60b1ea"] ;
308 -> 316 ;
317 [label="Age <= 0.289\nentropy = 0.635\nsamples = 1621\nvalue = [260, 1361]\nclass = Baja", fillcolor="#5fb0ea"] ;
316 -> 317 ;
318 [label="entropy = 0.706\nsamples = 500\nvalue = [96, 404]\nclass = Baja", fillcolor="#68b4eb"] ;
317 -> 318 ;
319 [label="entropy = 0.6\nsamples = 1121\nvalue = [164, 957]\nclass = Baja", fillcolor="#5baee9"] ;
317 -> 319 ;
320 [label="Age <= -0.182\nentropy = 0.856\nsamples = 82\nvalue = [23.0, 59.0]\nclass = Baja", fillcolor="#86c3ef"] ;
316 -> 320 ;
321 [label="entropy = 0.954\nsamples = 8\nvalue = [5, 3]\nclass = Recuperado", fillcolor="#f5cdb0"] ;
320 -> 321 ;
322 [label="entropy = 0.8\nsamples = 74\nvalue = [18, 56]\nclass = Baja", fillcolor="#79bced"] ;
320 -> 322 ;
323 [label="Total Spend <= -1.483\nentropy = 0.67\nsamples = 3262\nvalue = [573, 2689]\nclass = Baja", fillcolor="#63b2eb"] ;
307 -> 323 ;
324 [label="Total Spend <= -1.511\nentropy = 0.629\nsamples = 1192\nvalue = [188.0, 1004.0]\nclass = Baja", fillcolor="#5eafea"] ;
323 -> 324 ;
325 [label="Last Interaction <= 0.794\nentropy = 0.639\nsamples = 1148\nvalue = [186, 962]\nclass = Baja", fillcolor="#5fb0ea"] ;
324 -> 325 ;
326 [label="entropy = 0.604\nsamples = 805\nvalue = [119, 686]\nclass = Baja", fillcolor="#5baeea"] ;
325 -> 326 ;
327 [label="entropy = 0.712\nsamples = 343\nvalue = [67, 276]\nclass = Baja", fillcolor="#69b5eb"] ;
325 -> 327 ;
328 [label="Age <= 0.799\nentropy = 0.267\nsamples = 44\nvalue = [2, 42]\nclass = Baja", fillcolor="#42a2e6"] ;
324 -> 328 ;
329 [label="entropy = 0.0\nsamples = 28\nvalue = [0, 28]\nclass = Baja", fillcolor="#399de5"] ;
328 -> 329 ;
330 [label="entropy = 0.544\nsamples = 16\nvalue = [2, 14]\nclass = Baja", fillcolor="#55abe9"] ;
328 -> 330 ;
331 [label="Total Spend <= -0.714\nentropy = 0.693\nsamples = 2070\nvalue = [385, 1685]\nclass = Baja", fillcolor="#66b3eb"] ;
323 -> 331 ;
332 [label="Last Interaction <= 1.491\nentropy = 0.718\nsamples = 1551\nvalue = [307, 1244]\nclass = Baja", fillcolor="#6ab5eb"] ;
331 -> 332 ;
333 [label="entropy = 0.704\nsamples = 1406\nvalue = [269, 1137]\nclass = Baja", fillcolor="#68b4eb"] ;
332 -> 333 ;
334 [label="entropy = 0.83\nsamples = 145\nvalue = [38, 107]\nclass = Baja", fillcolor="#7fc0ee"] ;
332 -> 334 ;
335 [label="Total Spend <= -0.694\nentropy = 0.611\nsamples = 519\nvalue = [78, 441]\nclass = Baja", fillcolor="#5caeea"] ;
331 -> 335 ;
336 [label="entropy = 0.156\nsamples = 44\nvalue = [1, 43]\nclass = Baja", fillcolor="#3e9fe6"] ;
335 -> 336 ;
337 [label="entropy = 0.639\nsamples = 475\nvalue = [77, 398]\nclass = Baja", fillcolor="#5fb0ea"] ;
335 -> 337 ;
338 [label="Support Calls <= -0.762\nentropy = 0.851\nsamples = 123\nvalue = [34, 89]\nclass = Baja", fillcolor="#85c2ef"] ;
286 -> 338 ;
339 [label="Total Spend <= -1.549\nentropy = 0.94\nsamples = 56\nvalue = [20, 36]\nclass = Baja", fillcolor="#a7d3f3"] ;
338 -> 339 ;
340 [label="Last Interaction <= 0.214\nentropy = 0.971\nsamples = 15\nvalue = [9, 6]\nclass = Recuperado", fillcolor="#f6d5bd"] ;
339 -> 340 ;
341 [label="entropy = 0.811\nsamples = 8\nvalue = [6, 2]\nclass = Recuperado", fillcolor="#eeab7b"] ;
340 -> 341 ;
342 [label="entropy = 0.985\nsamples = 7\nvalue = [3, 4]\nclass = Baja", fillcolor="#cee6f8"] ;
340 -> 342 ;
343 [label="Total Spend <= -1.248\nentropy = 0.839\nsamples = 41\nvalue = [11, 30]\nclass = Baja", fillcolor="#82c1ef"] ;
339 -> 343 ;
344 [label="Last Interaction <= -0.367\nentropy = 0.371\nsamples = 14\nvalue = [1, 13]\nclass = Baja", fillcolor="#48a5e7"] ;
343 -> 344 ;
345 [label="entropy = 0.0\nsamples = 7\nvalue = [0, 7]\nclass = Baja", fillcolor="#399de5"] ;
344 -> 345 ;
346 [label="entropy = 0.592\nsamples = 7\nvalue = [1, 6]\nclass = Baja", fillcolor="#5aade9"] ;
344 -> 346 ;
347 [label="Payment Delay <= 1.398\nentropy = 0.951\nsamples = 27\nvalue = [10, 17]\nclass = Baja", fillcolor="#add7f4"] ;
343 -> 347 ;
348 [label="Last Interaction <= -0.773\nentropy = 0.998\nsamples = 19\nvalue = [9, 10]\nclass = Baja", fillcolor="#ebf5fc"] ;
347 -> 348 ;
349 [label="entropy = 0.954\nsamples = 8\nvalue = [3, 5]\nclass = Baja", fillcolor="#b0d8f5"] ;
348 -> 349 ;
350 [label="entropy = 0.994\nsamples = 11\nvalue = [6, 5]\nclass = Recuperado", fillcolor="#fbeade"] ;
348 -> 350 ;
351 [label="entropy = 0.544\nsamples = 8\nvalue = [1, 7]\nclass = Baja", fillcolor="#55abe9"] ;
347 -> 351 ;
352 [label="Last Interaction <= -0.947\nentropy = 0.739\nsamples = 67\nvalue = [14, 53]\nclass = Baja", fillcolor="#6db7ec"] ;
338 -> 352 ;
353 [label="entropy = 0.0\nsamples = 10\nvalue = [0, 10]\nclass = Baja", fillcolor="#399de5"] ;
352 -> 353 ;
354 [label="Last Interaction <= -0.367\nentropy = 0.804\nsamples = 57\nvalue = [14, 43]\nclass = Baja", fillcolor="#79bded"] ;
352 -> 354 ;
355 [label="entropy = 0.985\nsamples = 7\nvalue = [4, 3]\nclass = Recuperado", fillcolor="#f8e0ce"] ;
354 -> 355 ;
356 [label="Contract Length_Monthly <= 0.667\nentropy = 0.722\nsamples = 50\nvalue = [10, 40]\nclass = Baja", fillcolor="#6ab6ec"] ;
354 -> 356 ;
357 [label="Total Spend <= -1.243\nentropy = 0.581\nsamples = 36\nvalue = [5, 31]\nclass = Baja", fillcolor="#59ade9"] ;
356 -> 357 ;
358 [label="entropy = 0.0\nsamples = 21\nvalue = [0, 21]\nclass = Baja", fillcolor="#399de5"] ;
357 -> 358 ;
359 [label="entropy = 0.918\nsamples = 15\nvalue = [5, 10]\nclass = Baja", fillcolor="#9ccef2"] ;
357 -> 359 ;
360 [label="Total Spend <= -1.491\nentropy = 0.94\nsamples = 14\nvalue = [5, 9]\nclass = Baja", fillcolor="#a7d3f3"] ;
356 -> 360 ;
361 [label="entropy = 0.985\nsamples = 7\nvalue = [3, 4]\nclass = Baja", fillcolor="#cee6f8"] ;
360 -> 361 ;
362 [label="entropy = 0.863\nsamples = 7\nvalue = [2, 5]\nclass = Baja", fillcolor="#88c4ef"] ;
360 -> 362 ;
363 [label="Last Interaction <= -0.134\nentropy = 0.603\nsamples = 2625\nvalue = [387, 2238]\nclass = Baja", fillcolor="#5baee9"] ;
285 -> 363 ;
364 [label="Last Interaction <= -1.528\nentropy = 0.541\nsamples = 1119\nvalue = [139, 980]\nclass = Baja", fillcolor="#55abe9"] ;
363 -> 364 ;
365 [label="Age <= 0.799\nentropy = 0.337\nsamples = 80\nvalue = [5, 75]\nclass = Baja", fillcolor="#46a4e7"] ;
364 -> 365 ;
366 [label="Age <= -0.653\nentropy = 0.445\nsamples = 54\nvalue = [5, 49]\nclass = Baja", fillcolor="#4da7e8"] ;
365 -> 366 ;
367 [label="entropy = 0.0\nsamples = 20\nvalue = [0, 20]\nclass = Baja", fillcolor="#399de5"] ;
366 -> 367 ;
368 [label="Total Spend <= -1.416\nentropy = 0.602\nsamples = 34\nvalue = [5, 29]\nclass = Baja", fillcolor="#5baee9"] ;
366 -> 368 ;
369 [label="Total Spend <= -1.535\nentropy = 0.811\nsamples = 16\nvalue = [4, 12]\nclass = Baja", fillcolor="#7bbeee"] ;
368 -> 369 ;
370 [label="entropy = 0.503\nsamples = 9\nvalue = [1, 8]\nclass = Baja", fillcolor="#52a9e8"] ;
369 -> 370 ;
371 [label="entropy = 0.985\nsamples = 7\nvalue = [3, 4]\nclass = Baja", fillcolor="#cee6f8"] ;
369 -> 371 ;
372 [label="Total Spend <= -0.848\nentropy = 0.31\nsamples = 18\nvalue = [1, 17]\nclass = Baja", fillcolor="#45a3e7"] ;
368 -> 372 ;
373 [label="entropy = 0.0\nsamples = 11\nvalue = [0, 11]\nclass = Baja", fillcolor="#399de5"] ;
372 -> 373 ;
374 [label="entropy = 0.592\nsamples = 7\nvalue = [1, 6]\nclass = Baja", fillcolor="#5aade9"] ;
372 -> 374 ;
375 [label="entropy = 0.0\nsamples = 26\nvalue = [0, 26]\nclass = Baja", fillcolor="#399de5"] ;
365 -> 375 ;
376 [label="Total Spend <= -0.645\nentropy = 0.555\nsamples = 1039\nvalue = [134, 905]\nclass = Baja", fillcolor="#56ace9"] ;
364 -> 376 ;
377 [label="Total Spend <= -0.69\nentropy = 0.571\nsamples = 934\nvalue = [126.0, 808.0]\nclass = Baja", fillcolor="#58ace9"] ;
376 -> 377 ;
378 [label="Total Spend <= -0.704\nentropy = 0.557\nsamples = 910\nvalue = [118.0, 792.0]\nclass = Baja", fillcolor="#56ace9"] ;
377 -> 378 ;
379 [label="Total Spend <= -1.756\nentropy = 0.56\nsamples = 900\nvalue = [118.0, 782.0]\nclass = Baja", fillcolor="#57ace9"] ;
378 -> 379 ;
380 [label="entropy = 0.643\nsamples = 214\nvalue = [35, 179]\nclass = Baja", fillcolor="#60b0ea"] ;
379 -> 380 ;
381 [label="entropy = 0.532\nsamples = 686\nvalue = [83, 603]\nclass = Baja", fillcolor="#54aae9"] ;
379 -> 381 ;
382 [label="entropy = 0.0\nsamples = 10\nvalue = [0, 10]\nclass = Baja", fillcolor="#399de5"] ;
378 -> 382 ;
383 [label="Last Interaction <= -0.657\nentropy = 0.918\nsamples = 24\nvalue = [8, 16]\nclass = Baja", fillcolor="#9ccef2"] ;
377 -> 383 ;
384 [label="Total Spend <= -0.665\nentropy = 0.672\nsamples = 17\nvalue = [3, 14]\nclass = Baja", fillcolor="#63b2eb"] ;
383 -> 384 ;
385 [label="entropy = 0.863\nsamples = 7\nvalue = [2, 5]\nclass = Baja", fillcolor="#88c4ef"] ;
384 -> 385 ;
386 [label="entropy = 0.469\nsamples = 10\nvalue = [1, 9]\nclass = Baja", fillcolor="#4fa8e8"] ;
384 -> 386 ;
387 [label="entropy = 0.863\nsamples = 7\nvalue = [5, 2]\nclass = Recuperado", fillcolor="#efb388"] ;
383 -> 387 ;
388 [label="Contract Length_Monthly <= 0.667\nentropy = 0.389\nsamples = 105\nvalue = [8, 97]\nclass = Baja", fillcolor="#49a5e7"] ;
376 -> 388 ;
389 [label="Total Spend <= -0.572\nentropy = 0.196\nsamples = 66\nvalue = [2, 64]\nclass = Baja", fillcolor="#3fa0e6"] ;
388 -> 389 ;
390 [label="Contract Length_Annual <= 0.226\nentropy = 0.371\nsamples = 28\nvalue = [2, 26]\nclass = Baja", fillcolor="#48a5e7"] ;
389 -> 390 ;
391 [label="entropy = 0.0\nsamples = 13\nvalue = [0, 13]\nclass = Baja", fillcolor="#399de5"] ;
390 -> 391 ;
392 [label="entropy = 0.567\nsamples = 15\nvalue = [2, 13]\nclass = Baja", fillcolor="#57ace9"] ;
390 -> 392 ;
393 [label="entropy = 0.0\nsamples = 38\nvalue = [0, 38]\nclass = Baja", fillcolor="#399de5"] ;
389 -> 393 ;
394 [label="Last Interaction <= -0.483\nentropy = 0.619\nsamples = 39\nvalue = [6, 33]\nclass = Baja", fillcolor="#5dafea"] ;
388 -> 394 ;
395 [label="Total Spend <= -0.57\nentropy = 0.779\nsamples = 26\nvalue = [6, 20]\nclass = Baja", fillcolor="#74baed"] ;
394 -> 395 ;
396 [label="entropy = 0.353\nsamples = 15\nvalue = [1, 14]\nclass = Baja", fillcolor="#47a4e7"] ;
395 -> 396 ;
397 [label="entropy = 0.994\nsamples = 11\nvalue = [5, 6]\nclass = Baja", fillcolor="#deeffb"] ;
395 -> 397 ;
398 [label="entropy = 0.0\nsamples = 13\nvalue = [0, 13]\nclass = Baja", fillcolor="#399de5"] ;
394 -> 398 ;
399 [label="Total Spend <= -0.487\nentropy = 0.645\nsamples = 1506\nvalue = [248, 1258]\nclass = Baja", fillcolor="#60b0ea"] ;
363 -> 399 ;
400 [label="Support Calls <= -0.444\nentropy = 0.649\nsamples = 1493\nvalue = [248, 1245]\nclass = Baja", fillcolor="#60b1ea"] ;
399 -> 400 ;
401 [label="Support Calls <= -1.08\nentropy = 0.686\nsamples = 887\nvalue = [162, 725]\nclass = Baja", fillcolor="#65b3eb"] ;
400 -> 401 ;
402 [label="Total Spend <= -1.659\nentropy = 0.609\nsamples = 321\nvalue = [48.0, 273.0]\nclass = Baja", fillcolor="#5caeea"] ;
401 -> 402 ;
403 [label="Total Spend <= -1.882\nentropy = 0.774\nsamples = 79\nvalue = [18, 61]\nclass = Baja", fillcolor="#73baed"] ;
402 -> 403 ;
404 [label="entropy = 0.583\nsamples = 43\nvalue = [6, 37]\nclass = Baja", fillcolor="#59ade9"] ;
403 -> 404 ;
405 [label="entropy = 0.918\nsamples = 36\nvalue = [12, 24]\nclass = Baja", fillcolor="#9ccef2"] ;
403 -> 405 ;
406 [label="Total Spend <= -1.57\nentropy = 0.541\nsamples = 242\nvalue = [30, 212]\nclass = Baja", fillcolor="#55abe9"] ;
402 -> 406 ;
407 [label="entropy = 0.0\nsamples = 18\nvalue = [0, 18]\nclass = Baja", fillcolor="#399de5"] ;
406 -> 407 ;
408 [label="entropy = 0.568\nsamples = 224\nvalue = [30, 194]\nclass = Baja", fillcolor="#58ace9"] ;
406 -> 408 ;
409 [label="Total Spend <= -0.562\nentropy = 0.725\nsamples = 566\nvalue = [114, 452]\nclass = Baja", fillcolor="#6bb6ec"] ;
401 -> 409 ;
410 [label="Age <= 1.074\nentropy = 0.708\nsamples = 544\nvalue = [105, 439]\nclass = Baja", fillcolor="#68b4eb"] ;
409 -> 410 ;
411 [label="entropy = 0.661\nsamples = 420\nvalue = [72, 348]\nclass = Baja", fillcolor="#62b1ea"] ;
410 -> 411 ;
412 [label="entropy = 0.836\nsamples = 124\nvalue = [33, 91]\nclass = Baja", fillcolor="#81c1ee"] ;
410 -> 412 ;
413 [label="Total Spend <= -0.529\nentropy = 0.976\nsamples = 22\nvalue = [9, 13]\nclass = Baja", fillcolor="#c2e1f7"] ;
409 -> 413 ;
414 [label="entropy = 0.918\nsamples = 12\nvalue = [8, 4]\nclass = Recuperado", fillcolor="#f2c09c"] ;
413 -> 414 ;
415 [label="entropy = 0.469\nsamples = 10\nvalue = [1, 9]\nclass = Baja", fillcolor="#4fa8e8"] ;
413 -> 415 ;
416 [label="Last Interaction <= 1.375\nentropy = 0.589\nsamples = 606\nvalue = [86, 520]\nclass = Baja", fillcolor="#5aade9"] ;
400 -> 416 ;
417 [label="Total Spend <= -0.686\nentropy = 0.522\nsamples = 468\nvalue = [55, 413]\nclass = Baja", fillcolor="#53aae8"] ;
416 -> 417 ;
418 [label="Total Spend <= -1.868\nentropy = 0.476\nsamples = 411\nvalue = [42, 369]\nclass = Baja", fillcolor="#50a8e8"] ;
417 -> 418 ;
419 [label="entropy = 0.635\nsamples = 81\nvalue = [13, 68]\nclass = Baja", fillcolor="#5fb0ea"] ;
418 -> 419 ;
420 [label="entropy = 0.429\nsamples = 330\nvalue = [29, 301]\nclass = Baja", fillcolor="#4ca6e8"] ;
418 -> 420 ;
421 [label="Contract Length_Monthly <= 0.667\nentropy = 0.775\nsamples = 57\nvalue = [13, 44]\nclass = Baja", fillcolor="#74baed"] ;
417 -> 421 ;
422 [label="entropy = 0.946\nsamples = 33\nvalue = [12, 21]\nclass = Baja", fillcolor="#aad5f4"] ;
421 -> 422 ;
423 [label="entropy = 0.25\nsamples = 24\nvalue = [1, 23]\nclass = Baja", fillcolor="#42a1e6"] ;
421 -> 423 ;
424 [label="Total Spend <= -0.627\nentropy = 0.769\nsamples = 138\nvalue = [31, 107]\nclass = Baja", fillcolor="#72b9ed"] ;
416 -> 424 ;
425 [label="Age <= -0.182\nentropy = 0.792\nsamples = 130\nvalue = [31, 99]\nclass = Baja", fillcolor="#77bced"] ;
424 -> 425 ;
426 [label="entropy = 0.89\nsamples = 52\nvalue = [16, 36]\nclass = Baja", fillcolor="#91c9f1"] ;
425 -> 426 ;
427 [label="entropy = 0.706\nsamples = 78\nvalue = [15, 63]\nclass = Baja", fillcolor="#68b4eb"] ;
425 -> 427 ;
428 [label="entropy = 0.0\nsamples = 8\nvalue = [0, 8]\nclass = Baja", fillcolor="#399de5"] ;
424 -> 428 ;
429 [label="entropy = 0.0\nsamples = 13\nvalue = [0, 13]\nclass = Baja", fillcolor="#399de5"] ;
399 -> 429 ;
430 [label="Total Spend <= -0.473\nentropy = 0.001\nsamples = 10610\nvalue = [1, 10609]\nclass = Baja", fillcolor="#399de5"] ;
284 -> 430 ;
431 [label="entropy = 0.0\nsamples = 10587\nvalue = [0, 10587]\nclass = Baja", fillcolor="#399de5"] ;
430 -> 431 ;
432 [label="Last Interaction <= 0.852\nentropy = 0.258\nsamples = 23\nvalue = [1, 22]\nclass = Baja", fillcolor="#42a1e6"] ;
430 -> 432 ;
433 [label="entropy = 0.0\nsamples = 16\nvalue = [0, 16]\nclass = Baja", fillcolor="#399de5"] ;
432 -> 433 ;
434 [label="entropy = 0.592\nsamples = 7\nvalue = [1, 6]\nclass = Baja", fillcolor="#5aade9"] ;
432 -> 434 ;
435 [label="Contract Length_Monthly <= 0.667\nentropy = 0.777\nsamples = 210260\nvalue = [162026, 48234]\nclass = Recuperado", fillcolor="#eda774"] ;
1 -> 435 ;
436 [label="Payment Delay <= 0.809\nentropy = 0.61\nsamples = 187059\nvalue = [159020, 28039]\nclass = Recuperado", fillcolor="#ea975c"] ;
435 -> 436 ;
437 [label="Age <= 0.839\nentropy = 0.446\nsamples = 172734\nvalue = [156700.0, 16034.0]\nclass = Recuperado", fillcolor="#e88e4d"] ;
436 -> 437 ;
438 [label="Last Interaction <= 0.098\nentropy = 0.286\nsamples = 163312\nvalue = [155176, 8136]\nclass = Recuperado", fillcolor="#e68843"] ;
437 -> 438 ;
439 [label="Support Calls <= -0.444\nentropy = 0.161\nsamples = 105249\nvalue = [102767, 2482]\nclass = Recuperado", fillcolor="#e6843e"] ;
438 -> 439 ;
440 [label="Age <= -1.595\nentropy = 0.064\nsamples = 77622\nvalue = [77042, 580]\nclass = Recuperado", fillcolor="#e5823a"] ;
439 -> 440 ;
441 [label="Support Calls <= -0.762\nentropy = 0.241\nsamples = 3241\nvalue = [3112, 129]\nclass = Recuperado", fillcolor="#e68641"] ;
440 -> 441 ;
442 [label="Payment Delay <= -1.309\nentropy = 0.058\nsamples = 3116\nvalue = [3095, 21]\nclass = Recuperado", fillcolor="#e5823a"] ;
441 -> 442 ;
443 [label="entropy = 0.0\nsamples = 422\nvalue = [422, 0]\nclass = Recuperado", fillcolor="#e58139"] ;
442 -> 443 ;
444 [label="Last Interaction <= -0.134\nentropy = 0.066\nsamples = 2694\nvalue = [2673, 21]\nclass = Recuperado", fillcolor="#e5823b"] ;
442 -> 444 ;
445 [label="entropy = 0.074\nsamples = 2342\nvalue = [2321, 21]\nclass = Recuperado", fillcolor="#e5823b"] ;
444 -> 445 ;
446 [label="entropy = 0.0\nsamples = 352\nvalue = [352, 0]\nclass = Recuperado", fillcolor="#e58139"] ;
444 -> 446 ;
447 [label="Total Spend <= 1.344\nentropy = 0.574\nsamples = 125\nvalue = [17, 108]\nclass = Baja", fillcolor="#58ace9"] ;
441 -> 447 ;
448 [label="Payment Delay <= 0.221\nentropy = 0.618\nsamples = 111\nvalue = [17, 94]\nclass = Baja", fillcolor="#5dafea"] ;
447 -> 448 ;
449 [label="entropy = 0.698\nsamples = 85\nvalue = [16, 69]\nclass = Baja", fillcolor="#67b4eb"] ;
448 -> 449 ;
450 [label="entropy = 0.235\nsamples = 26\nvalue = [1, 25]\nclass = Baja", fillcolor="#41a1e6"] ;
448 -> 450 ;
451 [label="entropy = 0.0\nsamples = 14\nvalue = [0, 14]\nclass = Baja", fillcolor="#399de5"] ;
447 -> 451 ;
452 [label="Last Interaction <= -0.483\nentropy = 0.053\nsamples = 74381\nvalue = [73930, 451]\nclass = Recuperado", fillcolor="#e5823a"] ;
440 -> 452 ;
453 [label="Support Calls <= -1.08\nentropy = 0.049\nsamples = 49635\nvalue = [49363, 272]\nclass = Recuperado", fillcolor="#e5823a"] ;
452 -> 453 ;
454 [label="Payment Delay <= -0.603\nentropy = 0.057\nsamples = 16703\nvalue = [16593, 110]\nclass = Recuperado", fillcolor="#e5823a"] ;
453 -> 454 ;
455 [label="entropy = 0.046\nsamples = 7068\nvalue = [7032, 36]\nclass = Recuperado", fillcolor="#e5823a"] ;
454 -> 455 ;
456 [label="entropy = 0.065\nsamples = 9635\nvalue = [9561, 74]\nclass = Recuperado", fillcolor="#e5823b"] ;
454 -> 456 ;
457 [label="Payment Delay <= -0.368\nentropy = 0.045\nsamples = 32932\nvalue = [32770, 162]\nclass = Recuperado", fillcolor="#e5823a"] ;
453 -> 457 ;
458 [label="entropy = 0.051\nsamples = 17146\nvalue = [17048, 98]\nclass = Recuperado", fillcolor="#e5823a"] ;
457 -> 458 ;
459 [label="entropy = 0.038\nsamples = 15786\nvalue = [15722, 64]\nclass = Recuperado", fillcolor="#e5823a"] ;
457 -> 459 ;
460 [label="Total Spend <= -0.347\nentropy = 0.062\nsamples = 24746\nvalue = [24567, 179]\nclass = Recuperado", fillcolor="#e5823a"] ;
452 -> 460 ;
461 [label="Total Spend <= -0.355\nentropy = 0.091\nsamples = 1559\nvalue = [1541, 18]\nclass = Recuperado", fillcolor="#e5823b"] ;
460 -> 461 ;
462 [label="entropy = 0.068\nsamples = 1478\nvalue = [1466, 12]\nclass = Recuperado", fillcolor="#e5823b"] ;
461 -> 462 ;
463 [label="entropy = 0.381\nsamples = 81\nvalue = [75, 6]\nclass = Recuperado", fillcolor="#e78b49"] ;
461 -> 463 ;
464 [label="Total Spend <= -0.325\nentropy = 0.06\nsamples = 23187\nvalue = [23026, 161]\nclass = Recuperado", fillcolor="#e5823a"] ;
460 -> 464 ;
465 [label="entropy = 0.0\nsamples = 275\nvalue = [275, 0]\nclass = Recuperado", fillcolor="#e58139"] ;
464 -> 465 ;
466 [label="entropy = 0.06\nsamples = 22912\nvalue = [22751, 161]\nclass = Recuperado", fillcolor="#e5823a"] ;
464 -> 466 ;
467 [label="Age <= -0.81\nentropy = 0.362\nsamples = 27627\nvalue = [25725.0, 1902.0]\nclass = Recuperado", fillcolor="#e78a48"] ;
439 -> 467 ;
468 [label="Total Spend <= 0.941\nentropy = 0.639\nsamples = 1463\nvalue = [237, 1226]\nclass = Baja", fillcolor="#5fb0ea"] ;
467 -> 468 ;
469 [label="Total Spend <= 0.9\nentropy = 0.6\nsamples = 979\nvalue = [143, 836]\nclass = Baja", fillcolor="#5baee9"] ;
468 -> 469 ;
470 [label="Total Spend <= -0.446\nentropy = 0.608\nsamples = 958\nvalue = [143, 815]\nclass = Baja", fillcolor="#5caeea"] ;
469 -> 470 ;
471 [label="entropy = 0.9\nsamples = 19\nvalue = [6, 13]\nclass = Baja", fillcolor="#94caf1"] ;
470 -> 471 ;
472 [label="entropy = 0.599\nsamples = 939\nvalue = [137, 802]\nclass = Baja", fillcolor="#5baee9"] ;
470 -> 472 ;
473 [label="entropy = 0.0\nsamples = 21\nvalue = [0, 21]\nclass = Baja", fillcolor="#399de5"] ;
469 -> 473 ;
474 [label="Total Spend <= 1.025\nentropy = 0.71\nsamples = 484\nvalue = [94, 390]\nclass = Baja", fillcolor="#69b5eb"] ;
468 -> 474 ;
475 [label="Last Interaction <= -0.134\nentropy = 0.912\nsamples = 52\nvalue = [17, 35]\nclass = Baja", fillcolor="#99cdf2"] ;
474 -> 475 ;
476 [label="entropy = 0.962\nsamples = 44\nvalue = [17, 27]\nclass = Baja", fillcolor="#b6dbf5"] ;
475 -> 476 ;
477 [label="entropy = 0.0\nsamples = 8\nvalue = [0, 8]\nclass = Baja", fillcolor="#399de5"] ;
475 -> 477 ;
478 [label="Age <= -0.967\nentropy = 0.676\nsamples = 432\nvalue = [77, 355]\nclass = Baja", fillcolor="#64b2eb"] ;
474 -> 478 ;
479 [label="entropy = 0.711\nsamples = 365\nvalue = [71, 294]\nclass = Baja", fillcolor="#69b5eb"] ;
478 -> 479 ;
480 [label="entropy = 0.435\nsamples = 67\nvalue = [6, 61]\nclass = Baja", fillcolor="#4ca7e8"] ;
478 -> 480 ;
481 [label="Age <= -0.025\nentropy = 0.173\nsamples = 26164\nvalue = [25488, 676]\nclass = Recuperado", fillcolor="#e6843e"] ;
467 -> 481 ;
482 [label="Support Calls <= -0.127\nentropy = 0.347\nsamples = 8582\nvalue = [8024, 558]\nclass = Recuperado", fillcolor="#e78a47"] ;
481 -> 482 ;
483 [label="Total Spend <= 1.43\nentropy = 0.053\nsamples = 7975\nvalue = [7927, 48]\nclass = Recuperado", fillcolor="#e5823a"] ;
482 -> 483 ;
484 [label="entropy = 0.056\nsamples = 7473\nvalue = [7425, 48]\nclass = Recuperado", fillcolor="#e5823a"] ;
483 -> 484 ;
485 [label="entropy = 0.0\nsamples = 502\nvalue = [502, 0]\nclass = Recuperado", fillcolor="#e58139"] ;
483 -> 485 ;
486 [label="Total Spend <= 1.233\nentropy = 0.634\nsamples = 607\nvalue = [97.0, 510.0]\nclass = Baja", fillcolor="#5fb0ea"] ;
482 -> 486 ;
487 [label="entropy = 0.577\nsamples = 503\nvalue = [69, 434]\nclass = Baja", fillcolor="#58ade9"] ;
486 -> 487 ;
488 [label="entropy = 0.84\nsamples = 104\nvalue = [28, 76]\nclass = Baja", fillcolor="#82c1ef"] ;
486 -> 488 ;
489 [label="Age <= 0.525\nentropy = 0.058\nsamples = 17582\nvalue = [17464, 118]\nclass = Recuperado", fillcolor="#e5823a"] ;
481 -> 489 ;
490 [label="Last Interaction <= -1.411\nentropy = 0.049\nsamples = 11243\nvalue = [11182, 61]\nclass = Recuperado", fillcolor="#e5823a"] ;
489 -> 490 ;
491 [label="entropy = 0.078\nsamples = 1554\nvalue = [1539, 15]\nclass = Recuperado", fillcolor="#e5823b"] ;
490 -> 491 ;
492 [label="entropy = 0.043\nsamples = 9689\nvalue = [9643, 46]\nclass = Recuperado", fillcolor="#e5823a"] ;
490 -> 492 ;
493 [label="Total Spend <= 0.233\nentropy = 0.074\nsamples = 6339\nvalue = [6282.0, 57.0]\nclass = Recuperado", fillcolor="#e5823b"] ;
489 -> 493 ;
494 [label="entropy = 0.103\nsamples = 2164\nvalue = [2135, 29]\nclass = Recuperado", fillcolor="#e5833c"] ;
493 -> 494 ;
495 [label="entropy = 0.058\nsamples = 4175\nvalue = [4147, 28]\nclass = Recuperado", fillcolor="#e5823a"] ;
493 -> 495 ;
496 [label="Gender_Female <= 0.103\nentropy = 0.461\nsamples = 58063\nvalue = [52409, 5654]\nclass = Recuperado", fillcolor="#e88f4e"] ;
438 -> 496 ;
497 [label="Support Calls <= -0.444\nentropy = 0.165\nsamples = 52835\nvalue = [51550, 1285]\nclass = Recuperado", fillcolor="#e6843e"] ;
496 -> 497 ;
498 [label="Age <= -1.595\nentropy = 0.071\nsamples = 39151\nvalue = [38817, 334]\nclass = Recuperado", fillcolor="#e5823b"] ;
497 -> 498 ;
499 [label="Support Calls <= -0.762\nentropy = 0.251\nsamples = 1648\nvalue = [1579, 69]\nclass = Recuperado", fillcolor="#e68742"] ;
498 -> 499 ;
500 [label="Last Interaction <= 1.375\nentropy = 0.051\nsamples = 1582\nvalue = [1573, 9]\nclass = Recuperado", fillcolor="#e5823a"] ;
499 -> 500 ;
501 [label="entropy = 0.064\nsamples = 1193\nvalue = [1184, 9]\nclass = Recuperado", fillcolor="#e5823b"] ;
500 -> 501 ;
502 [label="entropy = 0.0\nsamples = 389\nvalue = [389, 0]\nclass = Recuperado", fillcolor="#e58139"] ;
500 -> 502 ;
503 [label="Payment Delay <= -0.015\nentropy = 0.439\nsamples = 66\nvalue = [6, 60]\nclass = Baja", fillcolor="#4da7e8"] ;
499 -> 503 ;
504 [label="entropy = 0.567\nsamples = 45\nvalue = [6, 39]\nclass = Baja", fillcolor="#57ace9"] ;
503 -> 504 ;
505 [label="entropy = 0.0\nsamples = 21\nvalue = [0, 21]\nclass = Baja", fillcolor="#399de5"] ;
503 -> 505 ;
506 [label="Total Spend <= 1.506\nentropy = 0.061\nsamples = 37503\nvalue = [37238, 265]\nclass = Recuperado", fillcolor="#e5823a"] ;
498 -> 506 ;
507 [label="Total Spend <= 1.198\nentropy = 0.06\nsamples = 36629\nvalue = [36376, 253]\nclass = Recuperado", fillcolor="#e5823a"] ;
506 -> 507 ;
508 [label="entropy = 0.063\nsamples = 30901\nvalue = [30673, 228]\nclass = Recuperado", fillcolor="#e5823a"] ;
507 -> 508 ;
509 [label="entropy = 0.041\nsamples = 5728\nvalue = [5703, 25]\nclass = Recuperado", fillcolor="#e5823a"] ;
507 -> 509 ;
510 [label="Contract Length_Annual <= 0.226\nentropy = 0.105\nsamples = 874\nvalue = [862, 12]\nclass = Recuperado", fillcolor="#e5833c"] ;
506 -> 510 ;
511 [label="entropy = 0.174\nsamples = 422\nvalue = [411, 11]\nclass = Recuperado", fillcolor="#e6843e"] ;
510 -> 511 ;
512 [label="entropy = 0.023\nsamples = 452\nvalue = [451, 1]\nclass = Recuperado", fillcolor="#e58139"] ;
510 -> 512 ;
513 [label="Age <= -0.81\nentropy = 0.364\nsamples = 13684\nvalue = [12733, 951]\nclass = Recuperado", fillcolor="#e78a48"] ;
497 -> 513 ;
514 [label="Total Spend <= -0.26\nentropy = 0.624\nsamples = 739\nvalue = [115, 624]\nclass = Baja", fillcolor="#5dafea"] ;
513 -> 514 ;
515 [label="Payment Delay <= -0.132\nentropy = 0.378\nsamples = 82\nvalue = [6, 76]\nclass = Baja", fillcolor="#49a5e7"] ;
514 -> 515 ;
516 [label="entropy = 0.536\nsamples = 49\nvalue = [6, 43]\nclass = Baja", fillcolor="#55abe9"] ;
515 -> 516 ;
517 [label="entropy = 0.0\nsamples = 33\nvalue = [0, 33]\nclass = Baja", fillcolor="#399de5"] ;
515 -> 517 ;
518 [label="Last Interaction <= 0.214\nentropy = 0.648\nsamples = 657\nvalue = [109, 548]\nclass = Baja", fillcolor="#60b0ea"] ;
514 -> 518 ;
519 [label="entropy = 0.292\nsamples = 39\nvalue = [2, 37]\nclass = Baja", fillcolor="#44a2e6"] ;
518 -> 519 ;
520 [label="entropy = 0.665\nsamples = 618\nvalue = [107, 511]\nclass = Baja", fillcolor="#62b2ea"] ;
518 -> 520 ;
521 [label="Support Calls <= -0.127\nentropy = 0.17\nsamples = 12945\nvalue = [12618, 327]\nclass = Recuperado", fillcolor="#e6843e"] ;
513 -> 521 ;
522 [label="Age <= -0.731\nentropy = 0.048\nsamples = 8311\nvalue = [8267, 44]\nclass = Recuperado", fillcolor="#e5823a"] ;
521 -> 522 ;
523 [label="entropy = 0.0\nsamples = 398\nvalue = [398, 0]\nclass = Recuperado", fillcolor="#e58139"] ;
522 -> 523 ;
524 [label="entropy = 0.05\nsamples = 7913\nvalue = [7869, 44]\nclass = Recuperado", fillcolor="#e5823a"] ;
522 -> 524 ;
525 [label="Age <= -0.025\nentropy = 0.332\nsamples = 4634\nvalue = [4351, 283]\nclass = Recuperado", fillcolor="#e78946"] ;
521 -> 525 ;
526 [label="entropy = 0.624\nsamples = 295\nvalue = [46, 249]\nclass = Baja", fillcolor="#5eafea"] ;
525 -> 526 ;
527 [label="entropy = 0.066\nsamples = 4339\nvalue = [4305, 34]\nclass = Recuperado", fillcolor="#e5823b"] ;
525 -> 527 ;
528 [label="Total Spend <= 1.429\nentropy = 0.645\nsamples = 5228\nvalue = [859.0, 4369.0]\nclass = Baja", fillcolor="#60b0ea"] ;
496 -> 528 ;
529 [label="Total Spend <= 1.397\nentropy = 0.636\nsamples = 4908\nvalue = [788, 4120]\nclass = Baja", fillcolor="#5fb0ea"] ;
528 -> 529 ;
530 [label="Total Spend <= -0.469\nentropy = 0.639\nsamples = 4819\nvalue = [781.0, 4038.0]\nclass = Baja", fillcolor="#5fb0ea"] ;
529 -> 530 ;
531 [label="entropy = 0.994\nsamples = 11\nvalue = [5, 6]\nclass = Baja", fillcolor="#deeffb"] ;
530 -> 531 ;
532 [label="Support Calls <= -0.127\nentropy = 0.638\nsamples = 4808\nvalue = [776, 4032]\nclass = Baja", fillcolor="#5fb0ea"] ;
530 -> 532 ;
533 [label="entropy = 0.625\nsamples = 3879\nvalue = [605, 3274]\nclass = Baja", fillcolor="#5eafea"] ;
532 -> 533 ;
534 [label="entropy = 0.689\nsamples = 929\nvalue = [171, 758]\nclass = Baja", fillcolor="#66b3eb"] ;
532 -> 534 ;
535 [label="Payment Delay <= -1.191\nentropy = 0.397\nsamples = 89\nvalue = [7, 82]\nclass = Baja", fillcolor="#4aa5e7"] ;
529 -> 535 ;
536 [label="Age <= -0.888\nentropy = 0.811\nsamples = 20\nvalue = [5, 15]\nclass = Baja", fillcolor="#7bbeee"] ;
535 -> 536 ;
537 [label="entropy = 0.0\nsamples = 8\nvalue = [0, 8]\nclass = Baja", fillcolor="#399de5"] ;
536 -> 537 ;
538 [label="entropy = 0.98\nsamples = 12\nvalue = [5, 7]\nclass = Baja", fillcolor="#c6e3f8"] ;
536 -> 538 ;
539 [label="Last Interaction <= 1.259\nentropy = 0.189\nsamples = 69\nvalue = [2, 67]\nclass = Baja", fillcolor="#3fa0e6"] ;
535 -> 539 ;
540 [label="entropy = 0.0\nsamples = 49\nvalue = [0, 49]\nclass = Baja", fillcolor="#399de5"] ;
539 -> 540 ;
541 [label="entropy = 0.469\nsamples = 20\nvalue = [2, 18]\nclass = Baja", fillcolor="#4fa8e8"] ;
539 -> 541 ;
542 [label="Support Calls <= -0.762\nentropy = 0.764\nsamples = 320\nvalue = [71, 249]\nclass = Baja", fillcolor="#71b9ec"] ;
528 -> 542 ;
543 [label="Last Interaction <= 0.33\nentropy = 0.655\nsamples = 142\nvalue = [24, 118]\nclass = Baja", fillcolor="#61b1ea"] ;
542 -> 543 ;
544 [label="Total Spend <= 1.48\nentropy = 0.276\nsamples = 21\nvalue = [1, 20]\nclass = Baja", fillcolor="#43a2e6"] ;
543 -> 544 ;
545 [label="entropy = 0.592\nsamples = 7\nvalue = [1, 6]\nclass = Baja", fillcolor="#5aade9"] ;
544 -> 545 ;
546 [label="entropy = 0.0\nsamples = 14\nvalue = [0, 14]\nclass = Baja", fillcolor="#399de5"] ;
544 -> 546 ;
547 [label="Last Interaction <= 1.259\nentropy = 0.702\nsamples = 121\nvalue = [23, 98]\nclass = Baja", fillcolor="#67b4eb"] ;
543 -> 547 ;
548 [label="entropy = 0.786\nsamples = 81\nvalue = [19, 62]\nclass = Baja", fillcolor="#76bbed"] ;
547 -> 548 ;
549 [label="entropy = 0.469\nsamples = 40\nvalue = [4, 36]\nclass = Baja", fillcolor="#4fa8e8"] ;
547 -> 549 ;
550 [label="Age <= 0.682\nentropy = 0.833\nsamples = 178\nvalue = [47.0, 131.0]\nclass = Baja", fillcolor="#80c0ee"] ;
542 -> 550 ;
551 [label="Total Spend <= 1.452\nentropy = 0.794\nsamples = 163\nvalue = [39.0, 124.0]\nclass = Baja", fillcolor="#77bced"] ;
550 -> 551 ;
552 [label="entropy = 0.942\nsamples = 39\nvalue = [14.0, 25.0]\nclass = Baja", fillcolor="#a8d4f4"] ;
551 -> 552 ;
553 [label="entropy = 0.725\nsamples = 124\nvalue = [25, 99]\nclass = Baja", fillcolor="#6bb6ec"] ;
551 -> 553 ;
554 [label="Contract Length_Annual <= 0.226\nentropy = 0.997\nsamples = 15\nvalue = [8, 7]\nclass = Recuperado", fillcolor="#fcefe6"] ;
550 -> 554 ;
555 [label="entropy = 0.954\nsamples = 8\nvalue = [3, 5]\nclass = Baja", fillcolor="#b0d8f5"] ;
554 -> 555 ;
556 [label="entropy = 0.863\nsamples = 7\nvalue = [5, 2]\nclass = Recuperado", fillcolor="#efb388"] ;
554 -> 556 ;
557 [label="Support Calls <= -0.127\nentropy = 0.638\nsamples = 9422\nvalue = [1524, 7898]\nclass = Baja", fillcolor="#5fb0ea"] ;
437 -> 557 ;
558 [label="Contract Length_Annual <= 0.226\nentropy = 0.656\nsamples = 7504\nvalue = [1270, 6234]\nclass = Baja", fillcolor="#61b1ea"] ;
557 -> 558 ;
559 [label="Last Interaction <= 1.723\nentropy = 0.683\nsamples = 3702\nvalue = [671, 3031]\nclass = Baja", fillcolor="#65b3eb"] ;
558 -> 559 ;
560 [label="Total Spend <= -0.424\nentropy = 0.674\nsamples = 3566\nvalue = [632, 2934]\nclass = Baja", fillcolor="#64b2eb"] ;
559 -> 560 ;
561 [label="Total Spend <= -0.446\nentropy = 0.391\nsamples = 65\nvalue = [5, 60]\nclass = Baja", fillcolor="#49a5e7"] ;
560 -> 561 ;
562 [label="Age <= 1.623\nentropy = 0.637\nsamples = 31\nvalue = [5, 26]\nclass = Baja", fillcolor="#5fb0ea"] ;
561 -> 562 ;
563 [label="entropy = 0.874\nsamples = 17\nvalue = [5, 12]\nclass = Baja", fillcolor="#8bc6f0"] ;
562 -> 563 ;
564 [label="entropy = 0.0\nsamples = 14\nvalue = [0, 14]\nclass = Baja", fillcolor="#399de5"] ;
562 -> 564 ;
565 [label="entropy = 0.0\nsamples = 34\nvalue = [0, 34]\nclass = Baja", fillcolor="#399de5"] ;
561 -> 565 ;
566 [label="Age <= 1.78\nentropy = 0.678\nsamples = 3501\nvalue = [627, 2874]\nclass = Baja", fillcolor="#64b2eb"] ;
560 -> 566 ;
567 [label="Payment Delay <= -0.838\nentropy = 0.69\nsamples = 2800\nvalue = [517, 2283]\nclass = Baja", fillcolor="#66b3eb"] ;
566 -> 567 ;
568 [label="entropy = 0.74\nsamples = 974\nvalue = [204, 770]\nclass = Baja", fillcolor="#6db7ec"] ;
567 -> 568 ;
569 [label="entropy = 0.661\nsamples = 1826\nvalue = [313, 1513]\nclass = Baja", fillcolor="#62b1ea"] ;
567 -> 569 ;
570 [label="Payment Delay <= -1.309\nentropy = 0.627\nsamples = 701\nvalue = [110.0, 591.0]\nclass = Baja", fillcolor="#5eafea"] ;
566 -> 570 ;
571 [label="entropy = 0.414\nsamples = 96\nvalue = [8, 88]\nclass = Baja", fillcolor="#4ba6e7"] ;
570 -> 571 ;
572 [label="entropy = 0.654\nsamples = 605\nvalue = [102.0, 503.0]\nclass = Baja", fillcolor="#61b1ea"] ;
570 -> 572 ;
573 [label="Total Spend <= 0.985\nentropy = 0.865\nsamples = 136\nvalue = [39, 97]\nclass = Baja", fillcolor="#89c4ef"] ;
559 -> 573 ;
574 [label="Payment Delay <= 0.103\nentropy = 0.741\nsamples = 105\nvalue = [22, 83]\nclass = Baja", fillcolor="#6db7ec"] ;
573 -> 574 ;
575 [label="Total Spend <= -0.142\nentropy = 0.576\nsamples = 73\nvalue = [10, 63]\nclass = Baja", fillcolor="#58ade9"] ;
574 -> 575 ;
576 [label="entropy = 0.863\nsamples = 14\nvalue = [4, 10]\nclass = Baja", fillcolor="#88c4ef"] ;
575 -> 576 ;
577 [label="entropy = 0.474\nsamples = 59\nvalue = [6, 53]\nclass = Baja", fillcolor="#4fa8e8"] ;
575 -> 577 ;
578 [label="Total Spend <= 0.361\nentropy = 0.954\nsamples = 32\nvalue = [12, 20]\nclass = Baja", fillcolor="#b0d8f5"] ;
574 -> 578 ;
579 [label="entropy = 1.0\nsamples = 20\nvalue = [10, 10]\nclass = Recuperado", fillcolor="#ffffff"] ;
578 -> 579 ;
580 [label="entropy = 0.65\nsamples = 12\nvalue = [2, 10]\nclass = Baja", fillcolor="#61b1ea"] ;
578 -> 580 ;
581 [label="Payment Delay <= -0.956\nentropy = 0.993\nsamples = 31\nvalue = [17, 14]\nclass = Recuperado", fillcolor="#fae9dc"] ;
573 -> 581 ;
582 [label="entropy = 0.811\nsamples = 12\nvalue = [3, 9]\nclass = Baja", fillcolor="#7bbeee"] ;
581 -> 582 ;
583 [label="Gender_Female <= 0.103\nentropy = 0.831\nsamples = 19\nvalue = [14, 5]\nclass = Recuperado", fillcolor="#eeae80"] ;
581 -> 583 ;
584 [label="entropy = 0.991\nsamples = 9\nvalue = [5, 4]\nclass = Recuperado", fillcolor="#fae6d7"] ;
583 -> 584 ;
585 [label="entropy = 0.469\nsamples = 10\nvalue = [9, 1]\nclass = Recuperado", fillcolor="#e88f4f"] ;
583 -> 585 ;
586 [label="Total Spend <= 1.549\nentropy = 0.628\nsamples = 3802\nvalue = [599, 3203]\nclass = Baja", fillcolor="#5eafea"] ;
558 -> 586 ;
587 [label="Total Spend <= -0.463\nentropy = 0.626\nsamples = 3789\nvalue = [593, 3196]\nclass = Baja", fillcolor="#5eafea"] ;
586 -> 587 ;
588 [label="Payment Delay <= -0.368\nentropy = 0.904\nsamples = 25\nvalue = [8, 17]\nclass = Baja", fillcolor="#96cbf1"] ;
587 -> 588 ;
589 [label="Age <= 1.545\nentropy = 0.985\nsamples = 14\nvalue = [8, 6]\nclass = Recuperado", fillcolor="#f8e0ce"] ;
588 -> 589 ;
590 [label="entropy = 0.985\nsamples = 7\nvalue = [3, 4]\nclass = Baja", fillcolor="#cee6f8"] ;
589 -> 590 ;
591 [label="entropy = 0.863\nsamples = 7\nvalue = [5, 2]\nclass = Recuperado", fillcolor="#efb388"] ;
589 -> 591 ;
592 [label="entropy = 0.0\nsamples = 11\nvalue = [0, 11]\nclass = Baja", fillcolor="#399de5"] ;
588 -> 592 ;
593 [label="Total Spend <= -0.453\nentropy = 0.623\nsamples = 3764\nvalue = [585, 3179]\nclass = Baja", fillcolor="#5dafea"] ;
587 -> 593 ;
594 [label="entropy = 0.0\nsamples = 13\nvalue = [0, 13]\nclass = Baja", fillcolor="#399de5"] ;
593 -> 594 ;
595 [label="Total Spend <= -0.452\nentropy = 0.625\nsamples = 3751\nvalue = [585, 3166]\nclass = Baja", fillcolor="#5eafea"] ;
593 -> 595 ;
596 [label="entropy = 1.0\nsamples = 8\nvalue = [4, 4]\nclass = Recuperado", fillcolor="#ffffff"] ;
595 -> 596 ;
597 [label="entropy = 0.623\nsamples = 3743\nvalue = [581, 3162]\nclass = Baja", fillcolor="#5dafea"] ;
595 -> 597 ;
598 [label="entropy = 0.996\nsamples = 13\nvalue = [6, 7]\nclass = Baja", fillcolor="#e3f1fb"] ;
586 -> 598 ;
599 [label="Age <= 1.937\nentropy = 0.564\nsamples = 1918\nvalue = [254, 1664]\nclass = Baja", fillcolor="#57ace9"] ;
557 -> 599 ;
600 [label="Last Interaction <= -1.528\nentropy = 0.547\nsamples = 1800\nvalue = [227, 1573]\nclass = Baja", fillcolor="#56abe9"] ;
599 -> 600 ;
601 [label="Payment Delay <= -0.015\nentropy = 0.276\nsamples = 63\nvalue = [3, 60]\nclass = Baja", fillcolor="#43a2e6"] ;
600 -> 601 ;
602 [label="Payment Delay <= -1.191\nentropy = 0.151\nsamples = 46\nvalue = [1, 45]\nclass = Baja", fillcolor="#3d9fe6"] ;
601 -> 602 ;
603 [label="Age <= 1.388\nentropy = 0.353\nsamples = 15\nvalue = [1, 14]\nclass = Baja", fillcolor="#47a4e7"] ;
602 -> 603 ;
604 [label="entropy = 0.0\nsamples = 8\nvalue = [0, 8]\nclass = Baja", fillcolor="#399de5"] ;
603 -> 604 ;
605 [label="entropy = 0.592\nsamples = 7\nvalue = [1, 6]\nclass = Baja", fillcolor="#5aade9"] ;
603 -> 605 ;
606 [label="entropy = 0.0\nsamples = 31\nvalue = [0, 31]\nclass = Baja", fillcolor="#399de5"] ;
602 -> 606 ;
607 [label="Contract Length_Annual <= 0.226\nentropy = 0.523\nsamples = 17\nvalue = [2, 15]\nclass = Baja", fillcolor="#53aae8"] ;
601 -> 607 ;
608 [label="entropy = 0.0\nsamples = 8\nvalue = [0, 8]\nclass = Baja", fillcolor="#399de5"] ;
607 -> 608 ;
609 [label="entropy = 0.764\nsamples = 9\nvalue = [2, 7]\nclass = Baja", fillcolor="#72b9ec"] ;
607 -> 609 ;
610 [label="Last Interaction <= -0.947\nentropy = 0.555\nsamples = 1737\nvalue = [224.0, 1513.0]\nclass = Baja", fillcolor="#56ace9"] ;
600 -> 610 ;
611 [label="Total Spend <= 0.448\nentropy = 0.671\nsamples = 296\nvalue = [52, 244]\nclass = Baja", fillcolor="#63b2eb"] ;
610 -> 611 ;
612 [label="Total Spend <= -0.28\nentropy = 0.801\nsamples = 119\nvalue = [29, 90]\nclass = Baja", fillcolor="#79bded"] ;
611 -> 612 ;
613 [label="entropy = 0.0\nsamples = 13\nvalue = [0, 13]\nclass = Baja", fillcolor="#399de5"] ;
612 -> 613 ;
614 [label="entropy = 0.847\nsamples = 106\nvalue = [29, 77]\nclass = Baja", fillcolor="#84c2ef"] ;
612 -> 614 ;
615 [label="Total Spend <= 1.494\nentropy = 0.557\nsamples = 177\nvalue = [23, 154]\nclass = Baja", fillcolor="#57ace9"] ;
611 -> 615 ;
616 [label="entropy = 0.497\nsamples = 165\nvalue = [18, 147]\nclass = Baja", fillcolor="#51a9e8"] ;
615 -> 616 ;
617 [label="entropy = 0.98\nsamples = 12\nvalue = [5, 7]\nclass = Baja", fillcolor="#c6e3f8"] ;
615 -> 617 ;
618 [label="Total Spend <= -0.012\nentropy = 0.528\nsamples = 1441\nvalue = [172, 1269]\nclass = Baja", fillcolor="#54aae9"] ;
610 -> 618 ;
619 [label="Payment Delay <= -1.074\nentropy = 0.439\nsamples = 330\nvalue = [30, 300]\nclass = Baja", fillcolor="#4da7e8"] ;
618 -> 619 ;
620 [label="entropy = 0.655\nsamples = 71\nvalue = [12, 59]\nclass = Baja", fillcolor="#61b1ea"] ;
619 -> 620 ;
621 [label="entropy = 0.364\nsamples = 259\nvalue = [18, 241]\nclass = Baja", fillcolor="#48a4e7"] ;
619 -> 621 ;
622 [label="Total Spend <= 0.044\nentropy = 0.551\nsamples = 1111\nvalue = [142, 969]\nclass = Baja", fillcolor="#56abe9"] ;
618 -> 622 ;
623 [label="entropy = 0.876\nsamples = 44\nvalue = [13, 31]\nclass = Baja", fillcolor="#8cc6f0"] ;
622 -> 623 ;
624 [label="entropy = 0.532\nsamples = 1067\nvalue = [129, 938]\nclass = Baja", fillcolor="#54aae9"] ;
622 -> 624 ;
625 [label="Last Interaction <= 0.91\nentropy = 0.776\nsamples = 118\nvalue = [27, 91]\nclass = Baja", fillcolor="#74baed"] ;
599 -> 625 ;
626 [label="Payment Delay <= -1.191\nentropy = 0.859\nsamples = 92\nvalue = [26.0, 66.0]\nclass = Baja", fillcolor="#87c4ef"] ;
625 -> 626 ;
627 [label="Gender_Female <= 0.103\nentropy = 0.469\nsamples = 20\nvalue = [2, 18]\nclass = Baja", fillcolor="#4fa8e8"] ;
626 -> 627 ;
628 [label="entropy = 0.0\nsamples = 10\nvalue = [0, 10]\nclass = Baja", fillcolor="#399de5"] ;
627 -> 628 ;
629 [label="entropy = 0.722\nsamples = 10\nvalue = [2, 8]\nclass = Baja", fillcolor="#6ab6ec"] ;
627 -> 629 ;
630 [label="Total Spend <= 1.079\nentropy = 0.918\nsamples = 72\nvalue = [24, 48]\nclass = Baja", fillcolor="#9ccef2"] ;
626 -> 630 ;
631 [label="Total Spend <= 0.834\nentropy = 0.971\nsamples = 50\nvalue = [20, 30]\nclass = Baja", fillcolor="#bddef6"] ;
630 -> 631 ;
632 [label="entropy = 0.933\nsamples = 43\nvalue = [15.0, 28.0]\nclass = Baja", fillcolor="#a3d2f3"] ;
631 -> 632 ;
633 [label="entropy = 0.863\nsamples = 7\nvalue = [5, 2]\nclass = Recuperado", fillcolor="#efb388"] ;
631 -> 633 ;
634 [label="Payment Delay <= -0.25\nentropy = 0.684\nsamples = 22\nvalue = [4, 18]\nclass = Baja", fillcolor="#65b3eb"] ;
630 -> 634 ;
635 [label="entropy = 0.918\nsamples = 12\nvalue = [4, 8]\nclass = Baja", fillcolor="#9ccef2"] ;
634 -> 635 ;
636 [label="entropy = 0.0\nsamples = 10\nvalue = [0, 10]\nclass = Baja", fillcolor="#399de5"] ;
634 -> 636 ;
637 [label="Last Interaction <= 1.607\nentropy = 0.235\nsamples = 26\nvalue = [1, 25]\nclass = Baja", fillcolor="#41a1e6"] ;
625 -> 637 ;
638 [label="entropy = 0.0\nsamples = 18\nvalue = [0, 18]\nclass = Baja", fillcolor="#399de5"] ;
637 -> 638 ;
639 [label="entropy = 0.544\nsamples = 8\nvalue = [1, 7]\nclass = Baja", fillcolor="#55abe9"] ;
637 -> 639 ;
640 [label="Age <= -1.673\nentropy = 0.639\nsamples = 14325\nvalue = [2320, 12005]\nclass = Baja", fillcolor="#5fb0ea"] ;
436 -> 640 ;
641 [label="Last Interaction <= 0.794\nentropy = 0.52\nsamples = 308\nvalue = [36, 272]\nclass = Baja", fillcolor="#53aae8"] ;
640 -> 641 ;
642 [label="Total Spend <= 0.985\nentropy = 0.592\nsamples = 210\nvalue = [30, 180]\nclass = Baja", fillcolor="#5aade9"] ;
641 -> 642 ;
643 [label="Total Spend <= -0.128\nentropy = 0.497\nsamples = 156\nvalue = [17, 139]\nclass = Baja", fillcolor="#51a9e8"] ;
642 -> 643 ;
644 [label="Total Spend <= -0.219\nentropy = 0.824\nsamples = 31\nvalue = [8, 23]\nclass = Baja", fillcolor="#7ebfee"] ;
643 -> 644 ;
645 [label="Support Calls <= -0.762\nentropy = 0.592\nsamples = 21\nvalue = [3, 18]\nclass = Baja", fillcolor="#5aade9"] ;
644 -> 645 ;
646 [label="entropy = 0.954\nsamples = 8\nvalue = [3, 5]\nclass = Baja", fillcolor="#b0d8f5"] ;
645 -> 646 ;
647 [label="entropy = 0.0\nsamples = 13\nvalue = [0, 13]\nclass = Baja", fillcolor="#399de5"] ;
645 -> 647 ;
648 [label="entropy = 1.0\nsamples = 10\nvalue = [5, 5]\nclass = Recuperado", fillcolor="#ffffff"] ;
644 -> 648 ;
649 [label="Payment Delay <= 1.869\nentropy = 0.373\nsamples = 125\nvalue = [9, 116]\nclass = Baja", fillcolor="#48a5e7"] ;
643 -> 649 ;
650 [label="Total Spend <= 0.231\nentropy = 0.299\nsamples = 113\nvalue = [6, 107]\nclass = Baja", fillcolor="#44a2e6"] ;
649 -> 650 ;
651 [label="entropy = 0.0\nsamples = 36\nvalue = [0, 36]\nclass = Baja", fillcolor="#399de5"] ;
650 -> 651 ;
652 [label="Total Spend <= 0.703\nentropy = 0.395\nsamples = 77\nvalue = [6, 71]\nclass = Baja", fillcolor="#4aa5e7"] ;
650 -> 652 ;
653 [label="entropy = 0.497\nsamples = 55\nvalue = [6, 49]\nclass = Baja", fillcolor="#51a9e8"] ;
652 -> 653 ;
654 [label="entropy = 0.0\nsamples = 22\nvalue = [0, 22]\nclass = Baja", fillcolor="#399de5"] ;
652 -> 654 ;
655 [label="entropy = 0.811\nsamples = 12\nvalue = [3, 9]\nclass = Baja", fillcolor="#7bbeee"] ;
649 -> 655 ;
656 [label="Total Spend <= 1.379\nentropy = 0.796\nsamples = 54\nvalue = [13, 41]\nclass = Baja", fillcolor="#78bced"] ;
642 -> 656 ;
657 [label="Payment Delay <= 1.398\nentropy = 0.928\nsamples = 32\nvalue = [11, 21]\nclass = Baja", fillcolor="#a1d0f3"] ;
656 -> 657 ;
658 [label="entropy = 0.469\nsamples = 10\nvalue = [1, 9]\nclass = Baja", fillcolor="#4fa8e8"] ;
657 -> 658 ;
659 [label="Total Spend <= 1.171\nentropy = 0.994\nsamples = 22\nvalue = [10, 12]\nclass = Baja", fillcolor="#deeffb"] ;
657 -> 659 ;
660 [label="entropy = 0.722\nsamples = 10\nvalue = [2, 8]\nclass = Baja", fillcolor="#6ab6ec"] ;
659 -> 660 ;
661 [label="entropy = 0.918\nsamples = 12\nvalue = [8, 4]\nclass = Recuperado", fillcolor="#f2c09c"] ;
659 -> 661 ;
662 [label="Support Calls <= -0.444\nentropy = 0.439\nsamples = 22\nvalue = [2, 20]\nclass = Baja", fillcolor="#4da7e8"] ;
656 -> 662 ;
663 [label="entropy = 0.0\nsamples = 13\nvalue = [0, 13]\nclass = Baja", fillcolor="#399de5"] ;
662 -> 663 ;
664 [label="entropy = 0.764\nsamples = 9\nvalue = [2, 7]\nclass = Baja", fillcolor="#72b9ec"] ;
662 -> 664 ;
665 [label="Last Interaction <= 1.027\nentropy = 0.332\nsamples = 98\nvalue = [6, 92]\nclass = Baja", fillcolor="#46a3e7"] ;
641 -> 665 ;
666 [label="entropy = 0.0\nsamples = 25\nvalue = [0, 25]\nclass = Baja", fillcolor="#399de5"] ;
665 -> 666 ;
667 [label="Payment Delay <= 1.045\nentropy = 0.41\nsamples = 73\nvalue = [6, 67]\nclass = Baja", fillcolor="#4ba6e7"] ;
665 -> 667 ;
668 [label="entropy = 0.0\nsamples = 13\nvalue = [0, 13]\nclass = Baja", fillcolor="#399de5"] ;
667 -> 668 ;
669 [label="Last Interaction <= 1.375\nentropy = 0.469\nsamples = 60\nvalue = [6, 54]\nclass = Baja", fillcolor="#4fa8e8"] ;
667 -> 669 ;
670 [label="Last Interaction <= 1.143\nentropy = 0.722\nsamples = 20\nvalue = [4, 16]\nclass = Baja", fillcolor="#6ab6ec"] ;
669 -> 670 ;
671 [label="entropy = 0.469\nsamples = 10\nvalue = [1, 9]\nclass = Baja", fillcolor="#4fa8e8"] ;
670 -> 671 ;
672 [label="entropy = 0.881\nsamples = 10\nvalue = [3, 7]\nclass = Baja", fillcolor="#8ec7f0"] ;
670 -> 672 ;
673 [label="Contract Length_Annual <= 0.226\nentropy = 0.286\nsamples = 40\nvalue = [2, 38]\nclass = Baja", fillcolor="#43a2e6"] ;
669 -> 673 ;
674 [label="Gender_Female <= 0.103\nentropy = 0.454\nsamples = 21\nvalue = [2, 19]\nclass = Baja", fillcolor="#4ea7e8"] ;
673 -> 674 ;
675 [label="entropy = 0.619\nsamples = 13\nvalue = [2, 11]\nclass = Baja", fillcolor="#5dafea"] ;
674 -> 675 ;
676 [label="entropy = 0.0\nsamples = 8\nvalue = [0, 8]\nclass = Baja", fillcolor="#399de5"] ;
674 -> 676 ;
677 [label="entropy = 0.0\nsamples = 19\nvalue = [0, 19]\nclass = Baja", fillcolor="#399de5"] ;
673 -> 677 ;
678 [label="Last Interaction <= 1.259\nentropy = 0.641\nsamples = 14017\nvalue = [2284, 11733]\nclass = Baja", fillcolor="#60b0ea"] ;
640 -> 678 ;
679 [label="Contract Length_Annual <= 0.226\nentropy = 0.647\nsamples = 11663\nvalue = [1931.0, 9732.0]\nclass = Baja", fillcolor="#60b0ea"] ;
678 -> 679 ;
680 [label="Age <= 1.78\nentropy = 0.63\nsamples = 5856\nvalue = [927, 4929]\nclass = Baja", fillcolor="#5eafea"] ;
679 -> 680 ;
681 [label="Last Interaction <= -1.179\nentropy = 0.637\nsamples = 5516\nvalue = [888, 4628]\nclass = Baja", fillcolor="#5fb0ea"] ;
680 -> 681 ;
682 [label="Total Spend <= -0.252\nentropy = 0.693\nsamples = 903\nvalue = [168, 735]\nclass = Baja", fillcolor="#66b3eb"] ;
681 -> 682 ;
683 [label="Age <= -0.339\nentropy = 0.845\nsamples = 110\nvalue = [30.0, 80.0]\nclass = Baja", fillcolor="#83c2ef"] ;
682 -> 683 ;
684 [label="entropy = 0.684\nsamples = 44\nvalue = [8, 36]\nclass = Baja", fillcolor="#65b3eb"] ;
683 -> 684 ;
685 [label="entropy = 0.918\nsamples = 66\nvalue = [22, 44]\nclass = Baja", fillcolor="#9ccef2"] ;
683 -> 685 ;
686 [label="Total Spend <= -0.11\nentropy = 0.667\nsamples = 793\nvalue = [138, 655]\nclass = Baja", fillcolor="#63b2ea"] ;
682 -> 686 ;
687 [label="entropy = 0.258\nsamples = 69\nvalue = [3, 66]\nclass = Baja", fillcolor="#42a1e6"] ;
686 -> 687 ;
688 [label="entropy = 0.694\nsamples = 724\nvalue = [135, 589]\nclass = Baja", fillcolor="#66b3eb"] ;
686 -> 688 ;
689 [label="Last Interaction <= -0.599\nentropy = 0.625\nsamples = 4613\nvalue = [720, 3893]\nclass = Baja", fillcolor="#5eafea"] ;
681 -> 689 ;
690 [label="Total Spend <= 0.32\nentropy = 0.573\nsamples = 1113\nvalue = [151, 962]\nclass = Baja", fillcolor="#58ace9"] ;
689 -> 690 ;
691 [label="entropy = 0.503\nsamples = 459\nvalue = [51, 408]\nclass = Baja", fillcolor="#52a9e8"] ;
690 -> 691 ;
692 [label="entropy = 0.617\nsamples = 654\nvalue = [100, 554]\nclass = Baja", fillcolor="#5dafea"] ;
690 -> 692 ;
693 [label="Gender_Female <= 0.103\nentropy = 0.64\nsamples = 3500\nvalue = [569, 2931]\nclass = Baja", fillcolor="#5fb0ea"] ;
689 -> 693 ;
694 [label="entropy = 0.673\nsamples = 1721\nvalue = [304, 1417]\nclass = Baja", fillcolor="#63b2eb"] ;
693 -> 694 ;
695 [label="entropy = 0.607\nsamples = 1779\nvalue = [265, 1514]\nclass = Baja", fillcolor="#5caeea"] ;
693 -> 695 ;
696 [label="Total Spend <= -0.115\nentropy = 0.514\nsamples = 340\nvalue = [39, 301]\nclass = Baja", fillcolor="#53aae8"] ;
680 -> 696 ;
697 [label="Gender_Female <= 0.103\nentropy = 0.729\nsamples = 59\nvalue = [12, 47]\nclass = Baja", fillcolor="#6cb6ec"] ;
696 -> 697 ;
698 [label="Last Interaction <= -0.251\nentropy = 0.469\nsamples = 30\nvalue = [3, 27]\nclass = Baja", fillcolor="#4fa8e8"] ;
697 -> 698 ;
699 [label="entropy = 0.696\nsamples = 16\nvalue = [3, 13]\nclass = Baja", fillcolor="#67b4eb"] ;
698 -> 699 ;
700 [label="entropy = 0.0\nsamples = 14\nvalue = [0, 14]\nclass = Baja", fillcolor="#399de5"] ;
698 -> 700 ;
701 [label="Total Spend <= -0.231\nentropy = 0.894\nsamples = 29\nvalue = [9, 20]\nclass = Baja", fillcolor="#92c9f1"] ;
697 -> 701 ;
702 [label="entropy = 0.702\nsamples = 21\nvalue = [4, 17]\nclass = Baja", fillcolor="#68b4eb"] ;
701 -> 702 ;
703 [label="entropy = 0.954\nsamples = 8\nvalue = [5, 3]\nclass = Recuperado", fillcolor="#f5cdb0"] ;
701 -> 703 ;
704 [label="Total Spend <= 0.516\nentropy = 0.456\nsamples = 281\nvalue = [27, 254]\nclass = Baja", fillcolor="#4ea7e8"] ;
696 -> 704 ;
705 [label="Total Spend <= 0.223\nentropy = 0.138\nsamples = 103\nvalue = [2.0, 101.0]\nclass = Baja", fillcolor="#3d9fe6"] ;
704 -> 705 ;
706 [label="entropy = 0.25\nsamples = 48\nvalue = [2, 46]\nclass = Baja", fillcolor="#42a1e6"] ;
705 -> 706 ;
707 [label="entropy = 0.0\nsamples = 55\nvalue = [0, 55]\nclass = Baja", fillcolor="#399de5"] ;
705 -> 707 ;
708 [label="Total Spend <= 0.543\nentropy = 0.585\nsamples = 178\nvalue = [25, 153]\nclass = Baja", fillcolor="#59ade9"] ;
704 -> 708 ;
709 [label="entropy = 1.0\nsamples = 8\nvalue = [4, 4]\nclass = Recuperado", fillcolor="#ffffff"] ;
708 -> 709 ;
710 [label="entropy = 0.539\nsamples = 170\nvalue = [21, 149]\nclass = Baja", fillcolor="#55abe9"] ;
708 -> 710 ;
711 [label="Total Spend <= 1.544\nentropy = 0.664\nsamples = 5807\nvalue = [1004, 4803]\nclass = Baja", fillcolor="#62b1ea"] ;
679 -> 711 ;
712 [label="Total Spend <= 1.521\nentropy = 0.666\nsamples = 5781\nvalue = [1003, 4778]\nclass = Baja", fillcolor="#63b2ea"] ;
711 -> 712 ;
713 [label="Total Spend <= 1.512\nentropy = 0.662\nsamples = 5706\nvalue = [980, 4726]\nclass = Baja", fillcolor="#62b1ea"] ;
712 -> 713 ;
714 [label="Total Spend <= 1.489\nentropy = 0.663\nsamples = 5683\nvalue = [980, 4703]\nclass = Baja", fillcolor="#62b1ea"] ;
713 -> 714 ;
715 [label="entropy = 0.66\nsamples = 5610\nvalue = [960, 4650]\nclass = Baja", fillcolor="#62b1ea"] ;
714 -> 715 ;
716 [label="entropy = 0.847\nsamples = 73\nvalue = [20, 53]\nclass = Baja", fillcolor="#84c2ef"] ;
714 -> 716 ;
717 [label="entropy = 0.0\nsamples = 23\nvalue = [0, 23]\nclass = Baja", fillcolor="#399de5"] ;
713 -> 717 ;
718 [label="Total Spend <= 1.523\nentropy = 0.889\nsamples = 75\nvalue = [23, 52]\nclass = Baja", fillcolor="#91c8f0"] ;
712 -> 718 ;
719 [label="entropy = 0.994\nsamples = 11\nvalue = [6, 5]\nclass = Recuperado", fillcolor="#fbeade"] ;
718 -> 719 ;
720 [label="Age <= 0.839\nentropy = 0.835\nsamples = 64\nvalue = [17, 47]\nclass = Baja", fillcolor="#81c0ee"] ;
718 -> 720 ;
721 [label="entropy = 0.722\nsamples = 45\nvalue = [9, 36]\nclass = Baja", fillcolor="#6ab6ec"] ;
720 -> 721 ;
722 [label="entropy = 0.982\nsamples = 19\nvalue = [8, 11]\nclass = Baja", fillcolor="#c9e4f8"] ;
720 -> 722 ;
723 [label="Age <= -0.26\nentropy = 0.235\nsamples = 26\nvalue = [1, 25]\nclass = Baja", fillcolor="#41a1e6"] ;
711 -> 723 ;
724 [label="entropy = 0.592\nsamples = 7\nvalue = [1, 6]\nclass = Baja", fillcolor="#5aade9"] ;
723 -> 724 ;
725 [label="entropy = 0.0\nsamples = 19\nvalue = [0, 19]\nclass = Baja", fillcolor="#399de5"] ;
723 -> 725 ;
726 [label="Total Spend <= 1.273\nentropy = 0.61\nsamples = 2354\nvalue = [353, 2001]\nclass = Baja", fillcolor="#5caeea"] ;
678 -> 726 ;
727 [label="Total Spend <= 1.254\nentropy = 0.627\nsamples = 2049\nvalue = [322, 1727]\nclass = Baja", fillcolor="#5eafea"] ;
726 -> 727 ;
728 [label="Age <= 0.132\nentropy = 0.62\nsamples = 2023\nvalue = [312, 1711]\nclass = Baja", fillcolor="#5dafea"] ;
727 -> 728 ;
729 [label="Support Calls <= -0.444\nentropy = 0.676\nsamples = 961\nvalue = [171, 790]\nclass = Baja", fillcolor="#64b2eb"] ;
728 -> 729 ;
730 [label="Age <= -0.653\nentropy = 0.732\nsamples = 575\nvalue = [118, 457]\nclass = Baja", fillcolor="#6cb6ec"] ;
729 -> 730 ;
731 [label="entropy = 0.662\nsamples = 314\nvalue = [54, 260]\nclass = Baja", fillcolor="#62b1ea"] ;
730 -> 731 ;
732 [label="entropy = 0.804\nsamples = 261\nvalue = [64, 197]\nclass = Baja", fillcolor="#79bded"] ;
730 -> 732 ;
733 [label="Total Spend <= 1.087\nentropy = 0.577\nsamples = 386\nvalue = [53.0, 333.0]\nclass = Baja", fillcolor="#59ade9"] ;
729 -> 733 ;
734 [label="entropy = 0.617\nsamples = 340\nvalue = [52.0, 288.0]\nclass = Baja", fillcolor="#5dafea"] ;
733 -> 734 ;
735 [label="entropy = 0.151\nsamples = 46\nvalue = [1, 45]\nclass = Baja", fillcolor="#3d9fe6"] ;
733 -> 735 ;
736 [label="Support Calls <= -0.762\nentropy = 0.565\nsamples = 1062\nvalue = [141, 921]\nclass = Baja", fillcolor="#57ace9"] ;
728 -> 736 ;
737 [label="Age <= 0.446\nentropy = 0.472\nsamples = 456\nvalue = [46, 410]\nclass = Baja", fillcolor="#4fa8e8"] ;
736 -> 737 ;
738 [label="entropy = 0.231\nsamples = 80\nvalue = [3, 77]\nclass = Baja", fillcolor="#41a1e6"] ;
737 -> 738 ;
739 [label="entropy = 0.513\nsamples = 376\nvalue = [43, 333]\nclass = Baja", fillcolor="#53aae8"] ;
737 -> 739 ;
740 [label="Payment Delay <= 1.869\nentropy = 0.627\nsamples = 606\nvalue = [95, 511]\nclass = Baja", fillcolor="#5eafea"] ;
736 -> 740 ;
741 [label="entropy = 0.598\nsamples = 551\nvalue = [80, 471]\nclass = Baja", fillcolor="#5baee9"] ;
740 -> 741 ;
742 [label="entropy = 0.845\nsamples = 55\nvalue = [15.0, 40.0]\nclass = Baja", fillcolor="#83c2ef"] ;
740 -> 742 ;
743 [label="Payment Delay <= 1.162\nentropy = 0.961\nsamples = 26\nvalue = [10, 16]\nclass = Baja", fillcolor="#b5daf5"] ;
727 -> 743 ;
744 [label="entropy = 0.954\nsamples = 8\nvalue = [5, 3]\nclass = Recuperado", fillcolor="#f5cdb0"] ;
743 -> 744 ;
745 [label="Age <= -0.456\nentropy = 0.852\nsamples = 18\nvalue = [5, 13]\nclass = Baja", fillcolor="#85c3ef"] ;
743 -> 745 ;
746 [label="entropy = 0.985\nsamples = 7\nvalue = [3, 4]\nclass = Baja", fillcolor="#cee6f8"] ;
745 -> 746 ;
747 [label="entropy = 0.684\nsamples = 11\nvalue = [2, 9]\nclass = Baja", fillcolor="#65b3eb"] ;
745 -> 747 ;
748 [label="Age <= -1.438\nentropy = 0.474\nsamples = 305\nvalue = [31, 274]\nclass = Baja", fillcolor="#4fa8e8"] ;
726 -> 748 ;
749 [label="Payment Delay <= 1.515\nentropy = 0.828\nsamples = 23\nvalue = [6, 17]\nclass = Baja", fillcolor="#7fc0ee"] ;
748 -> 749 ;
750 [label="Last Interaction <= 1.491\nentropy = 0.954\nsamples = 16\nvalue = [6, 10]\nclass = Baja", fillcolor="#b0d8f5"] ;
749 -> 750 ;
751 [label="entropy = 0.592\nsamples = 7\nvalue = [1, 6]\nclass = Baja", fillcolor="#5aade9"] ;
750 -> 751 ;
752 [label="entropy = 0.991\nsamples = 9\nvalue = [5, 4]\nclass = Recuperado", fillcolor="#fae6d7"] ;
750 -> 752 ;
753 [label="entropy = 0.0\nsamples = 7\nvalue = [0, 7]\nclass = Baja", fillcolor="#399de5"] ;
749 -> 753 ;
754 [label="Age <= -0.182\nentropy = 0.432\nsamples = 282\nvalue = [25, 257]\nclass = Baja", fillcolor="#4ca7e8"] ;
748 -> 754 ;
755 [label="Age <= -1.202\nentropy = 0.221\nsamples = 113\nvalue = [4, 109]\nclass = Baja", fillcolor="#40a1e6"] ;
754 -> 755 ;
756 [label="Gender_Female <= 0.103\nentropy = 0.559\nsamples = 23\nvalue = [3, 20]\nclass = Baja", fillcolor="#57ace9"] ;
755 -> 756 ;
757 [label="entropy = 0.0\nsamples = 9\nvalue = [0, 9]\nclass = Baja", fillcolor="#399de5"] ;
756 -> 757 ;
758 [label="entropy = 0.75\nsamples = 14\nvalue = [3, 11]\nclass = Baja", fillcolor="#6fb8ec"] ;
756 -> 758 ;
759 [label="Total Spend <= 1.537\nentropy = 0.088\nsamples = 90\nvalue = [1, 89]\nclass = Baja", fillcolor="#3b9ee5"] ;
755 -> 759 ;
760 [label="entropy = 0.0\nsamples = 83\nvalue = [0, 83]\nclass = Baja", fillcolor="#399de5"] ;
759 -> 760 ;
761 [label="entropy = 0.592\nsamples = 7\nvalue = [1, 6]\nclass = Baja", fillcolor="#5aade9"] ;
759 -> 761 ;
762 [label="Age <= 0.603\nentropy = 0.541\nsamples = 169\nvalue = [21, 148]\nclass = Baja", fillcolor="#55abe9"] ;
754 -> 762 ;
763 [label="Payment Delay <= 1.633\nentropy = 0.734\nsamples = 68\nvalue = [14, 54]\nclass = Baja", fillcolor="#6cb6ec"] ;
762 -> 763 ;
764 [label="entropy = 0.575\nsamples = 44\nvalue = [6, 38]\nclass = Baja", fillcolor="#58ace9"] ;
763 -> 764 ;
765 [label="entropy = 0.918\nsamples = 24\nvalue = [8, 16]\nclass = Baja", fillcolor="#9ccef2"] ;
763 -> 765 ;
766 [label="Age <= 0.996\nentropy = 0.363\nsamples = 101\nvalue = [7.0, 94.0]\nclass = Baja", fillcolor="#48a4e7"] ;
762 -> 766 ;
767 [label="entropy = 0.0\nsamples = 24\nvalue = [0, 24]\nclass = Baja", fillcolor="#399de5"] ;
766 -> 767 ;
768 [label="entropy = 0.439\nsamples = 77\nvalue = [7, 70]\nclass = Baja", fillcolor="#4da7e8"] ;
766 -> 768 ;
769 [label="Payment Delay <= 0.809\nentropy = 0.556\nsamples = 23201\nvalue = [3006, 20195]\nclass = Baja", fillcolor="#56ace9"] ;
435 -> 769 ;
770 [label="Support Calls <= -0.444\nentropy = 0.638\nsamples = 15127\nvalue = [2444, 12683]\nclass = Baja", fillcolor="#5fb0ea"] ;
769 -> 770 ;
771 [label="Total Spend <= -0.465\nentropy = 0.651\nsamples = 9049\nvalue = [1512.0, 7537.0]\nclass = Baja", fillcolor="#61b1ea"] ;
770 -> 771 ;
772 [label="entropy = 0.0\nsamples = 14\nvalue = [0, 14]\nclass = Baja", fillcolor="#399de5"] ;
771 -> 772 ;
773 [label="Payment Delay <= -0.132\nentropy = 0.652\nsamples = 9035\nvalue = [1512, 7523]\nclass = Baja", fillcolor="#61b1ea"] ;
771 -> 773 ;
774 [label="Last Interaction <= -1.179\nentropy = 0.666\nsamples = 5665\nvalue = [984, 4681]\nclass = Baja", fillcolor="#63b2ea"] ;
773 -> 774 ;
775 [label="Total Spend <= -0.265\nentropy = 0.593\nsamples = 760\nvalue = [109, 651]\nclass = Baja", fillcolor="#5aade9"] ;
774 -> 775 ;
776 [label="Age <= 0.917\nentropy = 0.36\nsamples = 73\nvalue = [5, 68]\nclass = Baja", fillcolor="#48a4e7"] ;
775 -> 776 ;
777 [label="Support Calls <= -1.08\nentropy = 0.216\nsamples = 58\nvalue = [2, 56]\nclass = Baja", fillcolor="#40a0e6"] ;
776 -> 777 ;
778 [label="entropy = 0.485\nsamples = 19\nvalue = [2, 17]\nclass = Baja", fillcolor="#50a9e8"] ;
777 -> 778 ;
779 [label="entropy = 0.0\nsamples = 39\nvalue = [0, 39]\nclass = Baja", fillcolor="#399de5"] ;
777 -> 779 ;
780 [label="Age <= 1.545\nentropy = 0.722\nsamples = 15\nvalue = [3, 12]\nclass = Baja", fillcolor="#6ab6ec"] ;
776 -> 780 ;
781 [label="entropy = 0.985\nsamples = 7\nvalue = [3, 4]\nclass = Baja", fillcolor="#cee6f8"] ;
780 -> 781 ;
782 [label="entropy = 0.0\nsamples = 8\nvalue = [0, 8]\nclass = Baja", fillcolor="#399de5"] ;
780 -> 782 ;
783 [label="Payment Delay <= -1.074\nentropy = 0.613\nsamples = 687\nvalue = [104.0, 583.0]\nclass = Baja", fillcolor="#5caeea"] ;
775 -> 783 ;
784 [label="Support Calls <= -0.762\nentropy = 0.522\nsamples = 264\nvalue = [31, 233]\nclass = Baja", fillcolor="#53aae8"] ;
783 -> 784 ;
785 [label="entropy = 0.604\nsamples = 176\nvalue = [26, 150]\nclass = Baja", fillcolor="#5baeea"] ;
784 -> 785 ;
786 [label="entropy = 0.315\nsamples = 88\nvalue = [5, 83]\nclass = Baja", fillcolor="#45a3e7"] ;
784 -> 786 ;
